682 576
41.25 178.25 269 431.75 529.75 610.5 344 248.25 138.5 96.5 130.5 105 14.75 25.25 20.5 27.25 41.25 1 -49 -24.25 -16.5 -1 7 -10.5 109.75 394.25 460.5 665.25 857.75 917.25 897 724 354.25 132.25 63.5 97 47.25 53.75 10.5 60.25 21.75 1.25 4 -85 -74.75 -25.75 -4 -5.5 195.5 487 601.75 736.5 917.25 957 935.5 886.75 755.25 383.75 108.75 75.5 78 47 22.25 35 31.75 -12 6.5 -43.25 -57.25 -111.25 -18.25 21 339.75 546.25 550.5 581.75 621.75 770.25 750.25 529.25 462 497 276 116 134.75 4.75 8 12.25 -4.25 44.75 -54.75 -16.25 -2.5 -20.5 -61 -7.5 460.25 467.25 343.5 261 289.5 589 626.25 361.5 323.75 337.75 428 217.25 98.75 -78.75 8 -19 39.5 98 -102.25 13.5 -5.25 -47.25 -35 -24.75 499.25 688.5 461.5 494.5 606.25 854.25 932.75 727.75 615.5 649.5 676 323.5 83.25 -30 1 69.5 12.25 108.25 -65.25 -19.75 -17.5 35.5 -89 -17 447 693.75 865 976 845.25 903 977.75 880 1013.5 938.25 617 402.5 56.5 48.25 40 10.5 -101.75 63.5 -34.25 58.5 -0.5 -39.75 -179 -152 402.5 557.5 792 950.25 666.25 609.75 671.75 621.25 949.75 833 678.75 292 -12.5 57.5 58.5 19.75 -106.75 96.25 -89.75 104.25 -11.25 -43.5 -32.25 -114 214.25 420.75 598 822.5 793.25 815.25 856.75 836.75 858.75 698.5 596 419.25 103.25 35.75 54.5 48 -44.25 13.75 16.75 15.75 -31.25 -22.5 -34 318.25 167 398 455.75 598.5 547.5 622.25 632.75 569.5 564.25 590.25 460 323.25 93.5 6.5 46.25 16.5 -1.5 12.75 -5.25 -22.5 30.75 -17.25 -154.5 166.75 146 317 350.25 399.25 474 494.5 503.25 483 441.75 453.75 491.25 524 68 36 -7.25 26.25 10.5 2.5 -12.25 -2 -17.25 24.75 -28.25 31 310.25 231.75 311.5 319.25 406.75 485.25 459.5 473.5 416.25 413.75 423.5 573 -37.75 -6.75 19 6.75 38.75 -21.25 -13.5 10.5 -6.75 6.25 69.5 2 9.25 57.75 58.5 63.25 143.75 185 154.5 10.25 3.5 -8.5 -16 -1.5 10.75 3.75 2.13533e-14 16.75 11.25 10.5 -12.5 -24.25 -14.5 -17 15.5 6 21.25 30.25 67.5 42.25 34.75 16.25 15.5 126.5 128.25 26.75 -2 -5.5 5.75 6.75 9.5 -10.75 -13.25 -0.75 4.5 39.5 -24.75 -27.25 -19.5 -2 21.5 22.5 8.25 -6.5 -21.25 -17 -6.5 -16.75 26.25 87.75 23.25 -1.5 21 -4.5 1.75 -10 7.25 3 -7.5 2.25 39.75 -3.25 12.25 5.0243e-15 35.25 -23.75 -62.5 -115.25 -175.25 -76.75 -83.75 -211.75 -205.5 -56 40 22 -1.75 -29.25 -7 -10.75 -5.25 15.75 -23.75 -17.25 21 14.5 1 -11.5 22.25 -12.75 -55 9 29 81 110.75 65 -32.25 16.25 77 17.75 -12.25 -37.75 16.5 23 -3 60 -49.75 18 -46.25 -37.75 -15 3.75 -6.25 33.5 56.5 50.5 122.75 43.25 44.75 132.25 86.5 155 22.5 55.5 -0.25 32 -51 -19.5 -10.25 -26.75 24.75 15.75 -10.5 9 -28.5 -2 -6 -25.25 -6 21 -29.75 -18.5 -2.25 -54 2 -24.25 38.5 -4 -19.5 11.25 5 4.5 -11.75 2 -5.25 0.5 2.84187e-14 -4.25 62.5 -57.5 -32.5 -37 -40.5 -26.25 -106.25 -261.25 -232.25 -162.75 -21.25 -34.5 -9.75 -8 4.5 -8 -2 10.25 -84.25 60.25 -40.75 100.25 -19.25 6 7.25 61 -27.75 -24.25 -46.5 -61 52.25 153.75 139.75 51.75 -55.25 -27.5 -34 -22.75 1.25 -11.25 -5 -8.5 60.75 15.25 -34.25 -57.25 15.75 1.5 -12 -5.75 3.5 -2.5 -28.75 -56 -70 78.75 93.25 78.5 -71.75 -23.25 -43.5 5.25 9 12 -4.25 -9 2 21.25 36.25 -38.5 5.75 6.25 -34 -34.25 -1 -34 -17.75 -44.75 -76.5 72 139.25 -84 -67.25 -26.75 62.75 56.5 -31 10 -12.25 4.25 -8 76 -17.25 -36 20.75 9.25 52.25 -29.5 -193.75 -36.25 -21 7.25 30.75 -53.75 -46 -22.5 27.25 -20.75 -146 -2.5 -23.75 18.25 15.5 -4.25 1.75 4.75 9 24.5 -5.75 -1.25 62 1.5 anger
157.25 103.5 139 445.75 807 941.5 967 847.5 503 170 116.75 145.5 -65.75 2 27 140.75 47.5 18.5 -25 -41 -131.5 -38.5 2.25 10 83.25 109.75 249.25 573.5 831 909 962.75 851.25 680 391 116.75 125.25 12.75 12.25 111.25 86 46 7.5 3.75 -35.25 -65.5 -116.5 1.75 1.75 83 112.5 381.5 619.25 897.5 917.25 952.75 914.5 790.5 628 126.5 138.75 3 21.5 132.5 40.75 46 5.75 2.75 -17.5 -3.5 -91.5 -37.5 15.25 81.75 123.5 396.25 441.5 572 756.25 694.75 481.25 457.75 540.75 235.25 114 6.75 31.5 37.25 -15.5 79.5 99.25 -91.25 -51.25 35.25 15.75 -153.25 35.5 76.75 134 300.25 304 276.25 621.25 659 356.5 416 422 392.5 120.75 11.75 38 11.25 -19 7.75 158.25 -137.5 -33 6.5 22.5 -172.5 29.75 84 174 381 473.75 632 835.25 911 822.5 618.75 586 590.5 137.5 10.5 65.5 -25 70.75 -21.5 146.75 -45.5 -14 -41.75 49 -143.5 21.5 75.25 220.25 701.25 849.25 724 867.25 936.25 855 979.25 930.5 719.5 141.5 0.25 96.75 57.75 24.25 -127.5 125.75 -69.75 83 -8.25 -15.5 -130 -10 75 155 573 842.75 672 463.75 546 754.5 970.75 843.5 512 136 -4 27 90 48.25 -159 115.25 -90 105 -3.75 -51 -164.5 -14 84.25 105.5 327 646.5 696 734.75 873.75 859.75 833.75 633 290 141.5 -2.75 -12 96 60 -33 49.25 5.25 28.75 -37.75 -58.5 -155 -23 87.5 89.5 217.5 375.5 424.25 521.5 560.75 499 544.5 508 218.5 133.5 -3.4542e-15 -2 50 26 11.25 22 -34.25 19 34 -32 -131.5 -25 92.75 88.5 145.75 299.25 431.5 444.5 491.5 575.25 487 425 112.5 119.25 -11.25 25 62.25 16.75 29.5 -12 45 -12.75 -3.5 -26 -53 -20.75 80.5 89 97.5 250.75 346.25 419.25 494.75 502.25 460.75 245 118 117 -11 34.5 10.5 42.25 15.25 29.75 -5.25 13.75 -19.75 -90.5 31 -39 -41.75 4.5 11 53.25 40.5 17.5 14.5 21 101.5 32 0.25 -2 36.25 5 26 -16.75 1 -6.5 1.5 11.5 6 -17.5 8.75 -9.5 -2.25 -0.25 35.25 34.5 15 -8.5 -7.25 23.25 45 79.5 0.25 3.25 0.25 -0.75 24.25 -12 4 -1 18.75 -0.25 21.5 -28 -8.75 -1.25 2 -1 34.5 -3.25 -3.5 26.25 31.75 -13.5 52 64.5 9.5 0.25 1 -1 -10.5 -28.75 17 19.75 -8.25 -8.5 30 23 -10.5 0.75 2.25 14 -88.75 -168 -193 -114.25 -102.75 -214.75 -48.75 -39.25 43.75 1 -0.75 12 -30.75 -33 30.5 2.75 -60.75 9.75 80.75 -55.25 -34.75 10.5 1.75 -2.5 -87.75 -124 23.75 70.75 104 49 -182 -145.5 32.5 1.75 0.75 -6.5 -46.75 5 12.25 46.75 -1.5 -61.5 -83.5 6 23.5 -4.25 -2 14.5 126 115.75 81.5 19.25 14 79 189.25 166 67.5 3.5 3.5 9 21 -12.25 -18 -19.25 12.5 12.5 11.75 -36 -1.5 1.5 -3.25 5.75 -2.75 36.75 -12.5 18.25 23.25 -43.5 27.25 6 -17.5 0.5 -0.25 6.25 2.75 5.75 -25 -14.25 11.25 13.5 3.75 3 4 -6 4.5 -23.5 -58 -28.25 -31.5 -215.75 -231.5 -53 -23.25 -44 -76.5 -1 1.5 -20.5 11 10.25 -43.5 -17.25 -14.5 86.5 -9.75 -3.5 3.01458e-14 -2 -1.25 -4 -48 -66 10 76.75 -10.25 -33.25 -53.25 -36.5 -28 4.5 0.75 2.5 -10 -9.5 44 -9.75 -13.75 -22.25 11.25 -11 4 4 1 -7.5 -7.5 -57.5 -69.75 131.5 143.75 3.5 -48.5 -16 -16 1.5 3.5 1 5 -11 15.25 32 20.75 -39.5 10 21 15 2 -1.75 11 -26.25 -13.25 -14.5 -46.5 -79.5 -54.75 -20.5 -26.5 -41.5 -0.25 -4.75 15.5 -11.75 -0.75 11.5 -17 -15 0.25 -11 -12.5 20 -3.25 1.5 -4 1 -16.25 10.75 10.25 44.75 18.25 22.25 -60.5 41 1.00486e-14 3 -1.5 -8 14.25 -4.25 28.75 -13.25 36.75 -16.25 17 53 1 anger
202.75 215.75 334.25 861.5 1015.5 1020 1020 1020 951.25 492.75 287 206.5 1.25 8.25 76.75 81 4.5 0 0 0 -62.75 -90.25 -58 4 141.25 120 684 1019.5 1020 1020 1020 1020 1020 776.25 188.75 164.25 -14.25 10.5 234.5 0.5 0 0 0 0 0 -188.25 -35.75 22.25 174 208.25 955.25 1020 1020 1020 1020 1020 1020 965 254.25 147.75 -21.5 96.25 64.75 0 0 0 0 0 0 -55 -125.75 25.25 97 284.5 999 977.5 932.25 997.5 957.75 865.5 914.5 999.5 656 146.25 -11.5 195.5 15.5 -11.5 1.75 20 -33.75 6.5 33.5 15 -282 34.25 153.25 615.75 816.5 477.75 462.25 878 783.75 564.25 592.75 865.5 987 223.25 -44.75 323.75 -55.5 -99.25 75.75 105 -154.75 -14.25 32.25 91.5 -33 -67.25 119.75 747.75 841.5 888 979.75 1014 1017.5 1004.5 963.25 997.5 1020 348.5 -27.25 268.25 -69 58 6.25 6 -2.5 -5.5 -18.25 18.5 0 -174.5 139 708.25 1020 1020 982.75 992 1010.5 992 1020 1020 1013.25 469 19.5 298.25 0 0 -37.25 28 -9.5 26.5 0 0 -6.75 -111.5 135.5 595 1016 1020 981.5 676.75 716 964.75 1020 1020 976.5 730.75 19 224.5 4 0 -38.5 41.25 -23 44.75 0 0 -43.5 3.75 89.75 509.75 942.25 1020 1020 994.75 1007 1020 1020 1020 933.5 685 -25.75 119.75 64.75 0 0 -14.25 11 0 0 0 -73.5 -82.5 112.75 180.75 754 1000 976.5 901.75 927.25 952.25 1013.75 987.5 705.25 186.5 -13.75 86.75 108 19.5 -36 -0.25 31.75 20.75 2.25 -19.5 -232.25 -13 150.75 100 386 805 940.5 880 938 919.25 989.25 810.25 393.25 221.75 4.75 -24.5 241 58 -36.5 25 -2 8.25 -25.25 -12.75 -244.75 46.25 162.75 134.25 214.75 546.75 741 887.75 928.5 931 812.75 645.25 350.25 201 5.75 -17.75 147.25 26.25 55.5 2.75 7 23 -78.75 2.75 -209.75 31 -39.75 -13.25 48.25 122.5 4.5 0 0 0 50.75 49.75 -34.5 -9.5 22.75 4.25 37.75 -47 -4.5 0 0 0 44.75 -34.25 3.5 10 -4.25 -12 131 0.5 0 0 0 0 0 83.75 -15.25 -13.25 -1.75 -2.5 -40.5 -0.5 0 0 0 0 0 29.25 6.25 -2.25 -1 32.25 -4.25 0 0 0 0 0 0 34.5 54.75 0.75 4.5 9.25 4.25 0 0 0 0 0 0 34.5 -53.25 -2.75 -0.5 67.5 7.5 -42.5 -87.25 -22 -61.75 -154.5 -103.5 -20.5 120 3.25 2 79.5 -13 -11.5 2.25 20.5 -34.25 6.5 31.5 15 48 1.25 9.75 64.25 -38.5 -131.75 37.25 40 86.75 16.25 -204.25 -126.5 22.5 39.75 -5.25 -29.75 -5.5 38.25 23.75 -11 28.25 -21.25 -52.75 78.5 22.5 -38.75 -7.75 7.75 158.5 112.5 40.25 6 2.5 15.5 56.75 22.5 0 21 12.25 -3.75 50 -45.5 -6.25 -6 2.5 5.5 18.25 -18.5 0 -11 -4 -22.25 0 0 -6.75 14 7 -13.5 0 0 -6.75 63 2.5 15.75 0 0 -6.75 -14 7 12 0 0 -6.75 39.5 7 8.03887e-14 -4 0 28 -59.75 -1.5 31.75 0 0 -11.5 30.25 -1.5 -83.5 4 0 28 -82.25 121.5 -21.25 0 0 -11.5 -63.75 -3.75 -34.75 -33.25 0 0 21.25 2.5 0 0 0 -26.5 -130.5 0.75 46.25 25.25 0 0 11.25 -4.5 0 0 0 -20.5 -56 14.75 -88.25 -72 -14.5 28.5 114.25 67.75 65.75 -3.25 -26.5 -102.25 -3.5 3.25 -73.25 19 14 34 -3.75 -8.75 -22.75 -0.75 -13.5 -67.75 39 6.75 13 -98 -58 -52.5 3 82 8.25 6.25 -34.75 -35.25 1.25 0.75 2.5 -22 0 -27.5 67 2 -44.75 5.75 -11.75 30.75 1.75 -3.75 -2.25 6.25 -61.75 -94 -76.25 -52.5 -59 -43.25 -50.25 -16.25 -10.5 -3.75 2.75 4.75 -25.25 20.5 -8.25 -5 12 -28.75 55.25 5.75 1.5 anger
159 99.75 135.5 438 801.75 940 970.25 853.25 521.25 173 116.5 140.75 -70 2.25 24 140 50.75 20 -22.25 -40.75 -131.25 -38.5 4.5 8.75 85.75 112 250.25 571.5 829.75 912.25 966.5 860.25 692.75 411 119 131.5 10.25 12.5 112.25 84.5 47.75 5.75 3.5 -37.75 -63.75 -105 -8 3 84.25 113.75 377.5 621.25 897.25 920 960 923.25 792.5 649.5 135.25 143 1.75 23.25 138.5 40.75 50.75 5.5 3.5 -10.75 0.5 -79.5 -53.25 11.5 84.5 125 395 443.75 574.75 756 709.5 491 453.5 535 251.75 121.5 7 30.5 36.5 -16.75 80.75 90 -96.5 -51 35 12 -179.75 26.5 77.5 135.75 303.75 311 278.75 608 673.5 358.5 418.25 425 406.75 130.25 9 38.75 14.25 -20.5 5.75 159.5 -133 -34 7.75 18 -159.75 20.25 87 170.25 374.25 464.75 629.75 826.25 916.5 825 620.25 571.75 606.75 143.5 9.5 62.75 -29.75 68.25 -18.25 147.75 -49.5 -11.5 -44.75 44.75 -115.75 12 78.5 214.75 700 843.5 730.25 856.5 943 852 978 934.75 751.75 148 0.5 93.25 57 21.5 -122.75 132.5 -66 82 -8 -13.25 -105.25 -25 76.25 154.25 574.75 837.5 683.25 471.75 559.75 743.5 970.25 854.75 549.5 133 -2.75 28.75 89.25 48 -157.75 114.75 -95.25 101 2.75 -49.25 -144.5 -20.5 86 105.25 331.75 647.75 695 715 860.5 856.75 844.25 646.5 315.5 133.25 -3 -11.75 95.75 59.75 -36.5 48.5 15 39.75 -35.25 -57.5 -152 -29.75 90 90.5 218 384.75 424.75 519 567 502.75 552.5 516.5 241.5 125.75 -1.5 0.5 50.5 28.25 7.75 16 -31 23.25 36 -38.5 -141 -34.25 94.25 90 147 303.75 439.75 456.5 499.75 585.5 494.75 439.75 130.75 119 -12.25 21.5 62.5 19.25 34.75 -8 37.75 -5.5 -4.25 -20.75 -72.25 -25.5 80.5 93 94.75 250.5 342.25 410.5 490.25 497 461 267 113.75 115.5 -13 38 10.75 37 16.25 28 -0.25 11 -17 -91 32.25 -39.5 -40.5 4.25 12 53.5 40.25 19 15.75 23.25 104.75 35.5 1.5 -1.25 37.5 5.75 23.5 -16.5 2.25 -7 0.25 12.25 17.25 -16 8.5 -9.25 -4.75 -0.5 33.25 36 16.75 -8.25 -10.5 21.25 39.25 84 1 4.5 1.75 -1 25.25 -14 0.75 -3.75 19.5 0.25 16.75 -27 -9 -3 2.25 -0.25 32 -1.25 -7.75 24.5 32 -10.75 45.5 63 12.75 0.5 -1.25 -0.75 -7 -29.75 18.75 22 -6.5 -6.75 35.5 18 -16.75 -7.53644e-15 3.5 13 -89 -168.75 -195.25 -115 -99.5 -215.5 -59.5 -35 40.25 2.5 0 12.5 -35.5 -33.25 27.75 -3 -60.5 5.5 80 -60 -28.25 9.5 1.5 -0.75 -83.25 -124.5 22.75 64.5 103.5 51.5 -177.75 -145.5 30.25 2.25 3 -5.75 -48.75 -2 9.75 44 -5 -66 -95.25 3.5 31.75 -4.75 -1.5 14.25 125.25 113.25 83.25 20.75 14 77.5 185.75 170.25 73.75 -1.00486e-14 3 7.75 20.25 -8.25 -16.75 -20.75 14 7 11.75 -31.75 -4.75 4.5 -1 5.75 1.5 38 -12.75 17 22.5 -45.5 28.5 10.75 -14.25 -2 1 8.25 -0.5 7 -28.75 -14 12.5 14.5 4.5 2.75 1.75 -8 3.75 -24.75 -56.75 -30 -27.75 -223.75 -242.75 -59 -22.25 -42.25 -78 -2.5 -0.25 -16.25 10.75 11.5 -37.75 -13.75 -22.75 91.5 -7.75 -2.25 -6 -1 0.5 -3.75 -48.25 -66.25 16 99.5 13 -16.25 -52.25 -36 -31 1.75 0.5 4.25 -8.25 -10.25 50.5 -3 -17.5 -32.25 9.25 -10 0.5 6.75 3.5 -7 -6.5 -56.75 -86.75 98 112.5 -19.25 -59.5 -18.5 -14.5 3.75 4 -1 1 -12.25 5.25 34 26.5 -36.75 14 21.5 11 1.75 -2.25 9 -29 -12.25 -18.25 -74 -94.25 -50 -19.75 -26.25 -47.75 -2.5 -5.75 14.5 -8.5 0.25 0.75 -19.5 -0.25 4 -11.75 -7.75 15.25 -3 3 -2.5 0.75 -14.5 10.25 5 51.25 23.5 24.5 -61 48.25 0.5 3.5 -2.5 -9.25 15 -2.75 28.5 -5.25 38.5 -15.5 6 53.75 1.5 anger
390 317.25 417.25 700.75 896.5 1006.75 825 764.25 550.75 535.75 467.25 539.5 5.5 -25.25 26.75 80.75 49.5 0.25 -46 -89.25 22.25 -13.25 -21.25 -23 305.75 529.25 562.25 901.75 1020 1020 1020 988.75 983 906.25 493 409.75 23.75 60.25 17.25 106.25 0 0 0 -31.25 -9.5 -42.25 -109.5 -12.25 218.5 633.5 892.25 1019 1020 1020 1020 1020 1020 1014.75 595.25 414.25 69 156 69.25 1 0 0 0 0 0 -5.25 -48.25 -36.75 251.5 654.5 896.75 952.5 926 997.5 971.5 819.75 908.75 976.25 481 418 68.5 152.5 -9.25 -27.5 14.5 12.5 -40 -16.75 30.75 35.75 -152 28 211.5 777.5 663.75 499.5 405 741.25 798.25 431.5 581.25 887 731.5 485 63 86.5 -71.25 -36.5 -35.5 172.25 -184.25 46.5 71.75 113 -188 10 368.75 853.25 961.5 875.5 948 1004.5 1019.5 950.5 932.5 1015.75 825.5 764.5 -79.25 83.25 -51 17.5 21.5 12.5 -0.5 -23.5 13 4.25 -175 -98 691.75 758.75 993.25 1020 1016 979.5 1015.5 1006 1020 1020 994.25 830.25 -37.25 60.25 23.75 0 -4 31.5 -4.5 14 0 0 -15.25 -164.75 787.25 697.5 894.25 1019.25 1014.5 663.5 755 953.5 1020 1019.5 847.25 634.25 40.75 52.5 68.75 0.75 -5.5 -22 31 66.5 0 -0.5 -119.25 -97.25 410.25 577.25 902.25 1019.25 979.25 896.5 896.75 963.5 1020 1017.75 572.75 551 -75.75 192.75 68.25 0.25 -32.25 -36.5 8.25 23.5 0 -2.25 -144.25 -1 488.75 588.75 740 890 852.75 858.25 846.25 928.5 995.25 954.5 622.25 546.5 3.75 74.25 10 -4 9.25 -32.75 49.75 12 -4.25 -8.5 -54.25 -4 480 610.75 619.75 681 855 767.75 785 897.5 949 913.25 600 543 9 115.75 -5.25 37 -31.5 -9.25 8 65.5 -39.5 69.25 -54 -0.5 465.25 620.5 739.5 584.75 790.75 912 936.75 951.5 815.75 1003.25 584.25 528.25 7.25 150 -89 13.25 117.75 -25.5 10.25 -25 -8.25 16.25 -54.25 -5.75 22.5 62.25 23.75 96.25 113 13.25 160.5 65.25 80.25 44.25 65.25 -19.5 60 -5.25 -4.75 12.25 -39 -0.25 26.5 -19.25 3.75 9.25 -44.25 5 1.25 33.25 57.25 54.25 0 0 0 31.25 37 72.75 38.5 36.75 -23.75 29.25 -21.75 -42.25 0 0 0 31.25 9.5 4.25 -6 -19.25 -8 -10 54.75 1 0 0 0 0 0 3.25 -50.75 -21.75 7.5 20.5 -12.25 -1 0 0 0 0 0 3.25 -21.25 2.25 -5 20.5 -87.75 -67.5 -94 -22.5 -48.5 -200.25 -110.75 -32.75 30.5 37.5 2 -20.5 -41.75 -27.5 14.5 12.5 -40 -16.75 31.25 24.75 -28.5 54.5 -14 38 -84.25 -59.5 77.5 77.25 94.25 134 60.75 -4.5 50.5 39 -1.5 -9 -89.25 29.5 -28 15.25 56.75 34 -15.75 12.5 5 12 87.75 -3.25 58.5 143.5 72 -1.5 0.5 69.5 87.5 4.25 2 54.5 -71.25 -1.25 51 -16.5 -21.5 -0.5 0.5 23.5 -13 -4.25 -3.5 1 66.75 -34.25 -22.25 0 -2.5 4.5 -4.5 -13.5 0 0 15.25 -8.25 14.75 -19.75 19.25 0 -2.5 -13.5 -4.5 13.5 0 0 4.75 -17.25 -101.25 -4.5 -2.25 -0.25 5 103 77.5 62 0 0.5 -135.75 -96.25 28.25 27.5 1.25 0.25 5 -45.5 82.5 -62 0 0.5 -90.25 93.25 67.75 -18.25 -19.25 -0.75 -40.75 -82 -85.75 -56 0 -1.25 8.25 -0.5 64.75 -17.75 -10.25 0.25 -32.25 0 -24.25 23 0 -1.25 78.25 2.5 -4.75 -1.75 -64 -80.5 81.25 -57.25 -57.75 39 -16.75 -39.5 -3.75 -1.5 -0.75 0.75 -7 4.5 30.75 -27.25 6.75 -16.5 -12.25 7.5 -3.25 6 -1 4.25 1.25 7.5 29 140.25 166 6 15.5 15.75 1.5 -0.5 -1.44449e-14 9.25 -25.75 0.5 22.5 45.25 -35 5 14 19.75 5.5 2.84187e-14 -0.75 4.01944e-14 51.5 -25.25 -88.25 61.5 10.75 -55.5 -33.25 13.75 -8.75 -5.75 -1.75 2.5 -1 -29.75 -0.25 -2 14.25 -35 71.75 -14.25 -3.25 1.25 anger
330.25 227 439.5 787.25 888 909.5 914.5 910.5 879.75 673.5 360.75 276.75 42.25 -4 97.5 41.25 8.5 4 -3 -1.5 -21.25 -78.5 -80.75 -12.75 282 293.75 619.5 775.25 877 898.5 904.75 902 869 755.75 424.75 232.25 -30 34.25 51.5 33.25 10.5 9 2.75 -5.5 -16.5 -35.75 -122.25 -41.25 212.5 298.75 671.75 794 863 912.75 891.25 864.5 860 773.5 451.25 183.5 -12 79.75 42.25 12 30 0.75 10.75 -16.5 -1.5 -35.5 -138.25 -19 148.75 432 646 623.5 677.5 789 739.25 652.25 720 746.75 548.75 162.5 11.75 91.5 26.5 -32 39 34.5 -0.25 -30.75 46.5 -20.75 -99.25 -16 188.5 546 425.75 357.5 377.25 627.75 653.75 446.75 404.75 506.5 674 203.5 64.5 18.5 -56.75 -50.5 -14.75 174.75 -159.25 33.75 38.75 70 -9.5 -31.5 308.75 711.25 699.5 628.5 650.25 786.25 827.75 716.25 686 804.25 815.5 377.5 123.25 35.75 -43.5 -8.5 9.25 94.75 -26.25 -44.25 3.5 33.75 -31 -93.5 335.25 705.5 845.5 867.75 770.25 794 800 875.5 912 889.75 779.25 412 93.25 49.5 19 -0.75 -77.25 88 -61.5 30.5 -1.5 -11.25 -57.75 -80.5 448 635.5 797.5 888.25 744.5 627.75 647.25 855.75 897 834 698.75 510 50 38 42.5 13.75 -96 58.25 2.25 51.25 -9.5 -26.5 -48.25 -75 510.25 588 734.25 784.75 709 672.75 721.5 817.5 828.75 783.5 656.5 477.5 -8.25 33.5 34.75 -13.75 -32 -12.75 2 -1.5 -3.75 -20.5 -47 -25 157.25 535 644 702.25 653.5 706.25 705.25 707.5 727.25 722.25 577.75 180.25 1.25 45.5 20 -0.75 -9.5 18.75 -4.25 -3.5 9.75 -7.75 -112.75 8.75 143.5 405.5 614.5 657.25 724.5 789.75 793.5 757.5 752.25 719.25 418.5 196 -4.5 149 15.5 -4.75 21 -4.25 -11 -15 -4.25 -11.25 -168 7 139 200 560 617.25 658.5 779.75 778.25 751.5 736.25 597 218 232.75 0.5 48 45.5 -9.75 23 1.75 -9.25 -5 -7.75 -66 31 -2.25 -24.25 20.5 50 -10.75 -9 -4.5 -6.5 -8.5 -6.75 24 10.25 11.75 -14.25 25.5 11 -5.75 0.5 1 -4 -1.5 3.25 6 -6.25 -24.75 8 -1.75 39.5 9.75 13.5 -1 3.75 4 4.5 17.75 18.25 -38.75 -18 4.75 -10.5 0.75 -4 1.5 0.75 -2.5 -2 8.25 11.25 -1.25 -32.5 13.25 8.25 0.5 -20 2.75 -13.75 -21.5 1 4 10.75 8 5 19.25 -10.25 -8.5 16 -8.25 7.75 3.5 8.5 3 -21.75 5.5 -5.25 33 -39 -110.5 -201 -87.5 -83.25 -234.75 -105.5 -34.75 25.25 -10 11.75 -27.5 13.5 -50 14.5 36 -41.75 -1.75 55 -10.25 25.25 5.5 20.5 33 -13.25 102 101.75 58.75 67.25 106.25 128.75 0.5 48.5 36 18.5 -10.5 16.25 -16 -20.25 19.75 -6.75 14.25 13.75 -32 19 -28 20.75 21.75 94.5 114.5 86.75 7.75 2.25 105.75 143.5 82.75 9 14 2.25 9.25 23.5 -8.5 -8.25 -21.75 29.25 22.25 15 -16.75 -12.5 2 10.25 -20 -21.5 19.25 -23.75 1.5 -10 -16 2.5 -26.75 -24.25 27.5 -23.75 -5 6 1.75 -17.25 3.5 -22.5 18 -5 -6.75 2.75 23 27.5 -11.5 -8.5 2.75 -38.5 -100.75 -140.25 17.25 -6.5 -3.5 -9.25 13.5 0.5 -1 1.5 2.25 -50 -10.25 0.75 -7.25 -2.82617e-14 2 3.75 19.5 -79.75 -11.5 -25.75 -63.75 -16.5 22.25 27.5 -68.5 -36.25 -23 -16 -109.5 47.75 -3 -5.25 -26.25 45.5 10.75 6 -18.5 5.25 5.65233e-14 -1.5 -27 -12.25 -17.5 -9.5 -22.25 9 49.25 61.25 12.5 0.25 -3.75 -24.25 11.25 -14.25 12 3.5 -25.25 27 -1.25 -4.25 -22.5 0.75 2.25 -25.75 -3.25 2.5 -46 -7 -26.25 -52.5 28.25 -50 -36.5 -6.25 -7.75 -64.5 5 2.5 32.5 -5 -2.25 2.88897e-14 25.25 -33.5 22 -1.75 -6.25 13 -7 -1.5 -43.5 -39 6.75 20.5 -27.25 -24.75 29.5 -13.75 -55 -24.5 21.25 2 -52.5 34.5 7.75 -11 -10.25 15.75 -17 -1.75 -13 12.5 -22.75 anger
500 580 391.5 514 670.25 699.25 713.5 653.75 552 408.75 275.5 322.75 -24.5 10.5 -94 64.5 10.25 6.75 -4.5 -20.25 -21.5 -61.25 -52.5 48.25 535.25 411.5 428.75 637.5 649.25 650 638.25 577.5 507.75 493.25 333.5 240.25 23.75 -80 102.75 8.5 -3.75 2.5 -16.25 -18 -5.25 -2.25 -76.5 42.75 422 313.25 561 636.75 665.25 680 656.75 576.75 540 499.75 394.5 213 -61 33.25 24.5 12.25 0.75 -11 -4.25 -18.75 -10.5 -6.75 -69.5 34 345.75 390 588.25 596.5 584 515.75 481.5 495.25 497.25 495 471.5 219.5 -26.25 102.5 5.25 -8.5 -10.5 43.25 -25.5 -4.75 6.75 -2 -32 -21.5 414.25 451 400 261.75 288.5 499.5 399.75 248.75 217 279.5 443.5 307.75 -71.75 50 -8.5 -34.75 33.5 67.5 -99.25 0.75 -15 20 43.5 -112.25 384.5 560.25 519.25 485.25 598 663.25 595.5 536.25 476.75 457.75 513.75 371.75 -74.5 18.75 -14.25 12.75 30.5 27.25 -58 7.75 -26.25 27.75 -5.75 -108.25 328.25 543.25 641 668.75 630.5 643.25 576 521 587.25 544.75 477.25 341.25 -22.25 30.25 12 6.75 -7.5 19.75 -45 10 4.25 -20.75 -14.75 -78.25 207.75 463.75 567.25 581.25 476 367 276 394.25 508.75 475 398.25 326 -45.25 38.75 22.25 -22.25 -47 24 -31.5 66.25 4.25 -17 -12.25 -22 210.75 404.5 529.75 563.75 617.25 522.75 483.25 504.75 478.75 439.5 393.5 295.5 -30.25 97 4.25 17.25 -4.25 -30.25 4.75 -1.25 -10.25 -11 -15.5 7 301.25 287 537.5 555.25 451.25 425 381.75 335 407.5 421.5 373.25 158.25 -130.25 158 19.5 -8.75 -25.75 -18 -18.75 15 17 -1.5 -26.25 16.75 381.75 135.5 439.25 498.5 510 463.5 426.75 411.75 381.5 367.25 199 211.25 -142.75 26 53.75 0.5 1.5 -25 -5.75 -2.25 -11 -5.25 -69.5 43.25 345 125.25 231 423.5 505 463.5 427 409.5 333.5 234.5 119.5 238.25 -70.5 -14.25 114.5 10 11.5 -16 -4.5 -8.5 -20.5 -55 -2 37.25 15 7 -67.5 94.5 36.25 -10.25 -17 1.75 -2.5 41.25 -9.5 -43.75 14.5 2.5 67 8 -12.75 -12.75 5 4.75 2 6.25 6.5 -9.25 16.25 -90.5 52.75 -4 -2.75 3 -8.75 -8.5 8.25 0.75 13.5 -3.25 -1.25 2 -20.25 -3 0.25 2.5 -3.25 -2 1.25 -1.75 -31.5 -20.75 -59 13.75 13.5 -6.25 -14.25 7.5 6.75 -0.75 1.5 2.25 13 1.5 2 -5.25 -7 -2.75 10.25 -13.5 0.75 3.75 -7 -0.25 5 -19.5 24.25 29 -8.25 -61.5 -86 -65.25 -80 -113.25 -85.25 -36 18.5 -4.5 -17.75 21.5 -9.25 -8.5 -16.5 37.25 -22 -5.25 21.25 8 17 -27.5 4.75 4 -135.5 -76.75 19.5 78.5 69.75 19.25 -0.5 -42 -17 24.75 -12.25 -27 -19 43.75 9.5 17.5 -26.25 2.25 -24.5 -35.5 9 -20.25 -18.5 33.25 62.75 99.75 62 2.75 9.5 48.25 70.75 59.75 16.75 6.75 21.5 2.75 3.25 5.25 -28.5 -8.25 3 8.75 5.75 -16.25 -9.75 13.75 -19.75 -28.25 -17.5 2.25 -35.5 -12.25 -15 -26 -12.25 -28.25 -28.25 -14.25 -6.25 -1.25 11.5 -4.75 7.5 -0.75 3 -9 4.75 -6.75 2.75 10.25 -24.75 -13.25 -18.75 -29.25 7.5 34.5 -25.5 -8.25 -10.75 -16 -12.75 1 17.25 8.75 -4.75 -3.75 -21.5 -29.5 -1 35.75 -2.25 -1 2.75 9 29.25 -21 1.25 15.25 4.75 6.75 4.25 -6.25 -10.25 -2.5 4 -73.5 -17.75 17.5 -1.25 8.75 11.25 23.75 13.75 -17.25 4.75 5 -3 -13 19.25 -30 -8 -13.25 16.25 31 23.25 8.5 -31 -12 -15.25 9.25 -11.25 -7 -2 -12.25 50.25 -8 8.75 -29.5 3.5 1 -8.75 16.75 -7.25 -27 -57.25 -1 44.5 62.5 65.75 58.25 9.5 -15.75 -60.5 0.75 0.25 -33.5 45.25 6 20 5 -6.75 -8.75 -11 -4.25 24 -1.25 -3.5 5.25 -3 -36.5 -45.5 -74 -85.5 -60.5 -27.5 -30.5 8.5 8.25 17 -3.25 -6.5 -1 5 -2.5 -1 8.5 3.5 4 2 -4.75 anger
222.75 263 540.75 666.25 756.25 770.25 766 774 725 712.75 542.75 99.5 -117.75 182 21.25 35.25 5.75 -2.75 2 -2.5 -31.5 21.75 -161.25 -6.5 161.75 289 510.75 619.75 710 736.5 740.25 723.75 685.5 655.25 542.5 98 -142.75 123.5 28.75 25.75 14 1.5 -3.75 -12.75 -8 -1.75 -64.5 -41 166.75 242 470 614.5 723.5 714 742.5 722.25 675.5 624 491.5 75.5 -141.25 80.5 34.5 23.5 21.5 -11 18 -11.25 -15.5 -12.5 -87 -39.5 163.75 278.5 405 425 516.75 594 469 480.75 488.5 572 590.5 87.25 -139.25 82 -7 7 57.25 51 -3 -9.75 13 43.5 -38 -41.25 223.75 274.25 214.5 142.75 191.25 434.75 394.25 210 200 314.25 569.5 163.75 -115.75 -2.75 -30 -42.25 -12.75 174.75 -100.75 1 42 60.25 39 -28.25 287.5 370.5 399.75 416 425.25 542.25 632.75 535.5 532.75 621.75 628.5 325 -93.5 54.5 -17.25 12 -2.75 167.25 -117.25 -14.5 -1.75 33.25 -12 -4.5 253.75 330.25 533.5 576.25 542.75 539.5 621 671.75 699.5 658.5 589.75 385.25 -78.75 85.25 16 10.25 -57.75 98 -37 11.75 0.5 -19.5 -16.75 82.25 311.75 256.75 481.5 620.25 528 378.5 453.25 645.75 685.25 607.5 542.5 440 35.75 65.25 49 15.75 -71.5 50 0.75 19.25 -0.25 -30 -17 123.5 224.25 195.75 400 489.5 435.25 392.75 425.25 479.5 565.75 554.25 538.5 257.75 -61.75 55.75 39.5 9.5 -26.75 8.25 18.75 38.5 5.25 -10.25 -3 -57.75 235.5 152.25 330.75 414.25 357.25 491.75 554.5 505.5 535.75 528.25 510 238.25 -64.5 29.25 31.25 -0.75 50.25 -9.75 30.5 -52.5 30.25 -15.25 5 -40.25 237.75 137.75 292.25 369.75 423.75 474 578.75 556.5 518.75 491.75 508.75 225.75 -22.75 -6.25 31.75 14.75 19.25 36.5 -6.25 -10 -7.25 -3.25 31.25 -26.25 259.5 265.75 294 317.5 380 417.5 446.25 479.5 440 426.25 526.75 244.25 2.5 -8.75 -1.5 4 34.5 -6.5 -5.75 11.5 -16 3.25 40.75 26.75 -22.25 21.5 -18.25 -29.25 -18.75 -12.75 -20.5 -29.5 -30 -24.25 28.25 -5.5 -9.75 -13.5 -2.75 -2.25 7.75 0.25 -3.5 -8 7.5 9.75 37.25 -14.5 -10.25 -9 -2.75 8.75 2 -16.5 -3.25 9.25 4.5 -14.25 -15.5 -2 -0.75 -13.5 8.25 0.75 -2 2.5 -3.25 4.75 -3 -14.25 0.5 -1 11.75 1 -8 -29.5 -14.5 -6 -16.5 -33.25 -23 9.5 14 -2.5 0.75 4.5 -3.5 -5.5 11.5 0 3 4.25 4 6 -4.5 5.5 -3.75 5.5 -97 -149 -127.25 -62 -175 -219.75 -140 -113 17 -5.25 0.25 -13 -22 4 3.25 27 -35 21.75 -0.5 61.5 16.5 -2.75 26.25 13.75 -34 10.25 77.25 24.25 55.25 85.5 -25.5 -44.25 4.5 41.25 -11.25 2.75 -37.5 4.25 -41.75 10.25 -10.75 -4.5 2.5 33.75 -4 8.25 -2 15 78.25 99.5 74.75 30.75 55.25 97.5 92.25 82.25 4.5 -4.5 9 14 9.25 -4.5 -17.25 -2.25 -1.75 0.5 8.75 -19.25 -11 -4 4.25 -31.25 -13.5 22.75 15.25 -94.5 -110 -15.75 17.5 -23.5 -21.75 16.25 5.75 0.75 13 8.75 11.75 -37 50 12.25 -3.5 -10.5 -2.25 22.25 21.25 7.75 -22 -13.75 -1.5 95 95.25 35.75 -22.25 -10.5 -3 -13 37.25 -22.75 1.5 -4.25 4 -21.5 2.75 -20.75 -2.75 9 -0.5 -61.5 -10.25 -20.75 -16 -26.5 -73.75 -76.75 -70.25 -120 -24.75 -9.75 -0.5 -11.25 -15.25 9.25 -4.5 -3.5 -6.75 4.75 -11.75 17 9.75 8.75 4 13.25 19 -1.75 -7.75 -3.75 54.25 -58.25 -96 50 8.75 10.75 -7.5 -0.75 7 -10.75 -0.25 8.25 -11.75 -36.75 16 41 -23.75 -6.75 0.5 -1.25 15.25 32.75 -9.25 -11.75 25.75 10.5 5.75 30 -16.25 -20.25 4.25 12.75 15.75 -13.25 -4.75 8.25 13.25 -25 30.75 -38.5 -5.25 4.75 9.75 23.75 -1 20.75 12.5 -13 -15.5 -5 -23.25 -24 -16 -2.25 1.25 1.25 -1 24.25 -6 -1.5 11 -21 -1.25 -18 10 0.75 -4.75 3.75 anger
44.5 37.25 173.25 389 558.25 466 289.75 194.75 67.5 94 108 216 -11.5 -6.25 61.25 46.5 34.75 -72.5 22.25 -44.25 -2 -3 2.5 26 19.25 117.75 402.25 564.25 694 663.75 506.75 481.75 295 132.5 76.5 118.25 -14.75 68.25 47.75 39.75 21 -33.75 3.25 -34.25 -50 -37 -2.5 42.25 47 304.5 522.25 585 697.25 732.75 680.25 653.75 573.75 430.5 122.75 49.75 30.5 88.5 3.25 29.5 26.75 -5.25 -5.75 -18.75 -19.75 -53.5 -28.25 13.25 51.25 322.25 441.5 371.25 465.5 614.5 553.5 298.5 252 316 208 125 31.75 45.25 -17 -5.75 55.5 9 -27 -52 15 38 -103 50 75.25 317.5 310.75 351 247.5 478.25 452.25 238.5 302.75 387.5 329 219.75 52.25 -40.5 38.25 -29 6.5 135.25 -143.75 31.5 3.25 28 -145.5 47.75 100.25 426.5 455.75 414 426.5 539 595 519.25 599.5 605 433.25 353.5 29.25 27.5 -45.75 28.5 -13 91 -79 37.25 4.5 -16.5 -110.75 -25 254.5 443.75 600.5 678.75 598.25 560 639 579.75 674 598 490.25 420.5 -42.5 48.75 35 6.75 -63.25 53.5 -74 34.75 6 -34.5 -22.75 43 402.75 387.75 570 666.5 552.5 394.25 416.5 499.25 649.75 550.75 492.5 381.5 -16.25 52.75 38 4.5 -96 39.25 -40 110.75 -3.75 -36.75 9.5 -134 394.5 369.25 478.5 620 557 507 511.5 540.75 589.5 526.25 394 200.5 35 19.75 33.5 24.5 -22 2.5 -1.5 15.75 11.5 -25.25 -101.5 -14.5 200 354 474.5 523.75 503.5 473.5 493.75 487.25 488.5 511.75 323 175.75 -1 77.5 3.5 21.75 -27.5 13 1.75 3.25 -2 8.25 -137.5 -0.25 192.75 311.75 493.5 492.75 508.5 498 479.25 490 488.5 494.75 279.75 171 2.25 53.75 13 -1.75 -5.5 -8 20.75 -6.5 -5.5 -6.75 -105.25 -1.5 182.5 328.25 398.25 512 563.75 486.5 488 559.5 520 441.75 286.25 168.75 1.5 45.25 46.25 4.5 14.75 -6 4.5 38 -15 -10.25 -114.25 -0.75 -13 -10.75 48.25 81.5 76.75 74 45.25 72.25 -13.5 -6.5 -18.5 -19.5 1 2.75 24.25 2.51215e-14 -3.75 -2.5 2.75 -10.75 -6 6.5 -6 19.5 -1.75 79.25 66.75 8.25 9 27.75 58.25 72.25 86.5 56 0.5 -12.25 3.25 41.75 -28.75 -2.25 -2.88897e-14 13.25 5.75 -5.75 2.5 -30.5 3.5 2.75 1 -1.5 1.25 7 -8.75 1.25 21.75 15.75 50.75 56 7.25 -6.75 1.5 -3.5 3.25 1.5 -1.25 0.25 -5.25 14.25 4.25 6 -13.75 -6.25 3.75 8.25 -99 -242.25 -207 -79 -85.5 -105 21.5 -68 29 41 -3.75 -10.75 -42.5 -20.25 40 16.5 -12 22.5 9.5 -24 -26 2 -1.25 21 79.75 -10 -31.5 11.25 40.75 5.5 -72.25 2.5 26.5 26.25 0.75 14 -19.75 -19 5.5 39.25 -26.25 7.5 -23.75 43 -2 1.25 37.75 28 104.25 146 93.5 25 25 73.25 90.5 34 15.75 52 -17.25 11 43.75 -11.5 -16 -20 14 -2.75 5.5 -21.5 16.75 -7.5 5.5 -13.75 -10.5 2.25 -8.25 -4.5 11 -17.25 -6.5 -1.5 -2.25 2 13.5 5.25 -1 4.25 -8.75 3 -4 -11.25 1.5 -1 7.75 -16.5 20.75 -10.75 -17 -10.5 -10.5 -49.75 -58 43.25 10.25 -15.75 7 -24 -22.25 -8.75 5.77794e-14 4.5 -11 -26.75 35.5 -14.25 -10.25 1.75 11 -22.5 -74.5 0.75 -15 -25 -31.5 23.5 -7.5 -38.75 -58 -6.25 -37 -17 13 8.25 -5 -1.5 18.5 -10 -22.5 -13.75 22 8.25 -38.5 14 -2.5 -10.5 12.5 -24.75 49 74.5 43.25 85.25 13.5 -2.75 -19 -6.25 1.5 9 -1.5 -3.75 36 -14 0.25 -8.75 -24 1.75 7.5 0.75 -1.75 -13.75 -3.5 -9.25 -9.5 -8 2.75 2 7 -7.25 -0.25 0 -0.25 -23.75 8 -13.75 -0.5 5 8.25 2.5 -3 -11.75 -3.25 0.5 -3 18.75 -33.25 -8 24.25 -18.5 -6.5 15 -13 -10.75 2.25 1.25 -7.06542e-15 18.75 -8.25 8.5 16.25 -6 -15 2.5 -3 27.25 -2.25 1.75 anger
54.25 54.5 38 40.75 308.75 554.5 636.75 525.75 253.75 32.25 16.5 245 1.25 19 -25.5 33.25 86.25 34 9.75 -55.75 -81.75 -21.75 -2.5 229.5 42.25 58.25 14.25 279.5 543.5 604.75 642 635.25 480.25 184.75 33.25 22.5 -4.25 -4.25 5.25 118 24.5 12.75 -2 -14.25 -63.25 -81.75 -0.75 21.5 57.5 45.25 103 440.25 570.5 533 599.75 581.75 529.75 319.25 59.25 2.75 -5.5 -16.75 45.5 77.25 -2.5 -18 25.75 -30.75 -7.75 -94.75 -25.75 -2.75 47.75 56.75 183.75 309.5 268.75 325.75 258.75 228.75 404 340.25 114.5 7.25 -0.75 18.25 85.25 -38.5 -16.75 21.75 -24.25 13.75 58.5 -58.25 -92 -7.25 254.75 49 155.5 130 56 422 229.25 69.75 104.25 211.75 186.5 39.75 -205.25 19 38 -46 9.5 166.5 -130.75 -2.25 7.75 45.25 -113.5 14.25 472.25 46.25 200.5 267.25 393.75 740.75 538.25 379.5 328.5 405.5 259.5 137.25 -325.75 25.25 24 18.75 57.25 153.25 -97.25 -18.5 5 20.5 -109 -13.25 709.5 257.25 474.25 631 584.5 789.25 663.5 597.5 631.75 508.25 336.75 417.75 -254.5 -22.75 44.75 19.5 -59.5 110.25 -111 75 -32.75 -32.25 -67.75 103.25 423.25 339.5 520.5 589 534.75 421 382.75 471 508 415.5 251.25 600.75 -124.75 45 26 14 -42.75 51.5 -72.25 85.5 -26 -23 -94.75 139.25 80.75 99.25 479 514 606.5 272.25 214.25 504.75 471.25 362.75 142.5 138.25 -19.75 86.75 22 8.5 -32 -63.25 50.75 49.25 -31.75 -15.75 -131 50.25 110 42.5 380.5 430.75 391.5 328.5 275.5 395.75 341.75 325.5 52.5 12.25 -36 7 34 -2.25 16 -43 42 4.25 1.25 3.5 -52.5 8.25 718.25 755 509.75 259 324.5 248.25 183 246 222.75 260.75 336.5 497.25 21.25 -6.5 -165.75 4.5 0.5 -50.25 20.5 7.5 -26.75 47.25 -15.5 56.75 909.25 889.25 666.25 288.25 261.5 199.25 184 182.25 192.5 275.25 582.75 612.75 2.75 -13.75 -123.75 -61.75 19 -15.25 -9 13.75 -4.5 43.75 6.75 10.25 -6.25 5.5 -20.5 35.75 135.25 102.5 65.75 98.75 100.25 24.25 0 -86 8.75 4 9 28.25 -1.25 -3 -11.25 9.25 -4.25 -16.75 5 -75.5 4.25 -3.75 9.25 63 6.5 -9.75 -3 25.75 30.25 42.25 6.75 -18.5 -3.25 -16.25 5.25 -3.5 -12.5 10.25 -4 4.25 0.75 -5.25 -3.25 -19.5 -0.5 -0.25 30 -27.25 -29 -58.5 -66.75 -115.25 -16.25 35.75 6.25 0.75 1.5 7.75 18.5 -24.25 -1 -27.5 5.25 -9.75 43.25 -9.25 -7.75 -0.75 0.25 1.75 -27.75 -54 -89.75 -31.25 -82.25 -126.25 -66 -83.75 26 -0.25 -0.25 6.25 -12.25 -6 -2.25 42.75 -19.25 -15.25 18.5 21.75 -28.5 0.25 89.75 -1.5 -109.5 -105 1 117 73.25 15.75 -55.25 -95.75 6.5 9.75 -91.25 1.5 -62 53 9.5 67.5 -37.75 0.75 -21.75 32.75 15.5 15.25 76.25 4.75 98.5 112.25 119.75 23.25 39.75 141 161.5 93.5 34 34.25 16.25 6.75 17 -3.25 8.25 -18.25 25.25 -1 6 -36.5 -11.5 -18.25 56.5 149.75 19.75 45.5 -8.5 25.25 51 -31.5 3.25 -9.25 5.25 99.25 26.5 -41.25 -7.75 5 -22.5 -17.75 -6.5 17 -2.25 0.25 26.75 74.75 -236.25 -77 -9 -37 -33.75 -242 -230.75 -44.5 -35 -23.5 -46.75 -48.75 16.75 51.5 3.5 -5 -23.25 15.5 0.25 59 -1.25607e-14 3 -37.75 30.75 5.25 -23.25 -13 -3.5 -11 78.75 59.25 -8.75 -8.25 -1.75 -17.5 -55.25 1.75 -27.75 2.76336e-14 5 12.5 -16.75 8.75 -33.25 1.75 3.75 11 -23.25 18.5 4 -53 -36.25 28.5 27.5 21.5 141.75 -10.25 -23 -23.5 -11.25 -11.5 -1.5 7.5 4.75 44 9 16 -0.75 -30.75 7 23.5 -8.25 129.75 136.5 92.75 -26.5 -130 -148.75 -80 -131 -34.75 8.75 265 146.25 -10.25 12 -43.75 1 -43 31.75 -16.5 15.5 24.75 8.25 15 -55.25 16.25 -3.75 -3.75 37.25 -10.5 10.25 17 -1.75 -5.5 -4.25 -19.25 -8.75 -2.25 -7.75 12.25 -22.75 15 -5.25 -2 -2.25 -0.5 -0.75 4.75 1.75 anger
244 159.25 211.25 379 476 358 347.25 300.5 219.5 114 117 159.5 -37.5 -0.25 30.25 51.5 -23.5 -32 33.25 32.5 -64.5 -4.5 4 17.5 168.75 314.25 544.25 596 577.75 538.25 529 497.75 436.25 380 220.5 115.75 -28.25 106.75 24.25 8.5 -15.25 -3.75 1.5 -9.75 -24.25 5.5 -83.5 12.75 174.25 425.75 551 590 594 554.75 564.75 546.75 465.75 420.75 348.25 108.75 -19.75 89.75 15.5 9.5 -11 -4.25 4.75 -14.25 -13.75 -7.25 -59.25 1.75 168.75 471.25 453 375.75 352.25 435.75 458.25 310.75 252.25 292.5 372 124.75 -27.75 37.75 -16.5 -24.25 25.75 17.25 -21.25 -31.75 3.25 14.5 1.5 3.25 201 490.75 374 262.5 237.5 469 399.25 186.75 211.25 270.25 360.25 181.25 1.5 -14.25 -40 -29.5 10.5 90 -117.25 6.75 5.75 16.25 47.75 -54.75 387.25 522.25 456.25 379.25 386.25 558.5 481 323 308.25 311.5 399.75 287.75 -41.75 -10.25 7.75 -30.75 48.75 40 -74 -18 -6.75 6 15.25 -80.25 448.25 530.75 529 556.25 552.75 586 503.25 430.25 450 413.5 409.5 375.5 57.75 -1.75 12 0.75 -5.25 25 -58.75 3.25 -5 -9.5 -1 -42.5 522 526.5 559 592.75 463.75 350 249.75 301.25 443 418 390.75 404.25 -9 -4.5 14.5 -0.25 -87.25 17 -32.25 90.25 6 -11.5 -4.25 -0.25 724 536 569.25 599.25 486.75 404.75 350.5 371.5 440 415.5 398 542 -14.5 -9 17.75 -16.25 -29.25 -4.75 -9.5 11 9.5 -10 -4.5 70 790.5 574.75 541 509.5 424 384.25 344 306.5 357.25 395.75 384.5 691 0 -46.75 2.5 -39.5 -6 -9.75 -22.5 11 33.25 -3.75 -2 78.5 787 628.5 516.25 437 456.75 421.25 314.5 314.25 295 347.25 376 756 0 -113 -12.25 -22 -3.75 -25.25 -19 8.25 6.5 3.25 12 14 763.5 577 486.5 450.75 412.75 395.5 337.5 296.5 295.25 331.5 381.5 691.75 -1 -43.5 -8 -15.75 -12.75 -12 -7.5 9 11.25 6.5 22 51.75 -19 -14.75 40.75 140.5 133 88.5 66.25 61 46 1.5 -12 -18.5 -3.5 3.75 -1.25 38 2.5 -16.5 6.25 -10 -13 -1 -3 3.5 -7.25 71.75 13.75 4 1.25 5.75 16.5 19.25 20.25 44 72 -8.25 17.75 18.25 -13.25 0.5 1.25 5.75 -2 -2.25 1.75 -4.5 -31 -4.25 3.25 11.25 -2 1.5 -5 -12.25 -12.25 -19.75 -7.25 -1.25 3.75 2.25 -8.75 -6.75 1.5 2.82617e-14 -2 -3.25 -0.25 1.25 2.25 -3.25 15.25 0.25 -2.25 12.25 -96 -157.75 -139.75 -45.75 -44.25 -109.75 -115.25 -94.5 -3.5 7.75 7.25 -19.25 -24.5 -16.75 23.75 23.75 -14.75 -15.25 6.75 5.5 21 -2.75 29.5 16.75 -76 -99 -21 47.5 41.25 -17.75 -48.25 -53.75 14.25 18.75 -2 6.75 -66 14 17 -0.5 -13.25 -15.75 -12.75 11.25 -15.25 -20.25 52.25 5.75 31.25 2.25 68.25 14 7.5 58.5 -15.75 35 13.25 44.75 12.25 4.25 -20.25 5.25 21.75 6.5 1.5 1.5 2.25 16.5 -7.25 13.75 31.75 -3.25 5.5 15.25 7.25 0 -0.25 3.75 11.5 2 -9 22.5 0.25 0.25 -6.5 2.75 -1.75 -4 -5.25 -9.25 5.5 -2 0.5 28.5 14 0.5 3 2.25 -6.75 -33 -48.25 3.75 -6 0.5 0.75 7.25 11 0.5 1.5 -0.75 -18.75 -8 16.75 24.75 -1 1 -0.25 6.75 66 6 -1.75 -18.25 -24.25 20.25 39.5 -4 -20.5 -0.5 -2.5 112.5 15.5 -3 -2.25 -13.75 2.75 15.75 -6.5 -12.5 16 1 0 63.5 -1 10.25 -8 -22.5 -33.5 47.25 69 8.5 -28.25 -9.25 -6.5 17.5 -0.5 -15.25 -5.5 -7.5 27.5 12.25 0.5 -26 14.75 -0.75 0 -19 -1 11 -8.75 -0.5 -36.75 32.75 38 -25.75 -1 -10.25 2 3 0 -12.5 -2.25 12.5 -2.25 35.25 -34.5 9.25 2.5 1.75 8 -4 -18.5 -71.5 -6.5 -3.25 -7.25 -8.5 -28 10.5 6.75 -3.5 -2.5 -58.75 -1 77 3 -1.75 -15.75 -2 -2.82617e-14 17 -3.25 4.5 -7 33.25 anger
96 89 137 401.75 573 614.5 631.25 638 574.25 410.5 177.25 176 10.5 -16 53 72.75 6.5 11 8.75 -1.5 -24.75 -60.5 -45.75 33.5 135 55.5 238.25 444.25 532.25 568 586.25 584.75 534.75 481 237.5 112 -9 -21 85.75 29.75 14.25 6 0.75 -7.75 -14.25 -10 -97.5 13 154.25 102 313 416 502.75 540.75 557.25 571 545.5 489.25 239.5 77 5.75 17 32.5 29.5 16.75 0.75 8.25 -7 -7 -25.75 -124.5 23.5 172 105.5 315.5 285.25 291.5 418.75 396 279.75 334.25 406.5 283.25 28.5 -21.5 26.5 25.5 -14.25 18.5 34.75 -59 -14.25 23.75 11 -89.25 0.5 135 95.25 207.5 207.75 169.75 322.5 365.5 192.25 243.25 348.25 404 82.75 -36 50.75 17 -8.25 -9.75 129 -99 5.25 16.75 22.75 -6.5 -56.25 93.5 131 272.75 300.25 336 386 441.25 366.25 389.75 443.25 395 208 -22.5 68 -9.75 20.75 -2 113.5 -30.75 -20.25 21.75 9.75 -28 -53.5 91.5 150.25 327.5 436.75 399.25 422.25 414.25 449.5 489.25 438 359.25 263.75 -1.5 53.75 27 23.75 -60.75 128.75 -27.75 28.5 -0.25 -14.5 -24.25 -37.75 136.75 145.75 282.25 395.75 313.5 304.75 302.5 407.75 453.25 385.5 334.5 364.75 13.75 25.75 31.75 16.25 -56.5 46.75 2.5 30.75 -12.25 -20 -2.5 26.25 91 137.5 251.5 295.5 321.5 177 277.5 450.5 417.25 367.75 314 153.75 18 17.5 18 4.5 -16.5 3 44.5 -2 -0.25 -17.25 -5.5 8.25 63.75 80.25 258.5 350 274.75 210.25 242.25 371 418 366.75 225.75 155.25 12.25 -17.75 47 -10 -22.75 -7.25 19.75 27.5 -3.5 -22.25 -85.25 60.25 50.5 52.75 169.5 296 314.75 304.5 329.5 359.75 369.25 334.75 139.25 73.75 3 -29.25 77 1 12.75 -15.5 22.5 6.25 -7.75 -19.25 -92.25 -1.25 46.75 22.75 137.25 280 311.75 434.25 455.5 366.75 348 332.5 96.75 68.75 -3.75 -10.25 62.75 10 31.25 16.75 -14 -26.75 3 6.5 -32.75 1.25 18.5 -10.5 1 76.25 -0.5 -16 -12.75 12 10.75 42.5 -5.25 -29.5 4 -4.5 31 -30.75 -4 -3.5 7.75 6.5 1.75 22.5 -8.25 -9 0 -2 24.75 -10.25 -2.25 3.5 6.25 3.75 -5.75 1.5 31.5 1 -5 8.5 -17.75 3.25 2.75 1.5 2.75 1.25 -2.75 3.5 -3.5 -8 12.75 19.5 5.5 -7.5 -20.75 -20.75 -21.75 -21.5 0.5 5.25 -11 -22 -5.75 6.5 -1 -6 0.25 -0.75 2.25 -1.5 13 -4.75 2 -10.5 -3 -15 -28 -120.25 -117.5 -51.25 -71 -130.25 -138.75 -88.5 43.75 -3 -3.5 5 -24 -20.75 12.5 22.75 -31 -11.25 9.75 38 14.25 -6 -13 9.75 30.5 -134.75 -74.75 15.5 36.5 -81.75 -142.25 -31.25 5.5 38.25 -3 4.25 -3 -22.75 39.75 25 1.00486e-14 -24.75 -13.75 47.25 8 -21.75 1.5 12.5 34.25 48.25 73.5 16 -4.75 99.25 92.75 30.75 2.5 14.5 11.5 -1.5 15.75 -5.25 10.5 4.5 4.25 16.75 -6.25 -19.75 -3.5 5 12.5 2.25 -0.5 3.75 -33.75 26.25 -9.75 -31.5 -16.75 -20 -10.25 45.75 12.5 -13.25 -1.25607e-14 -7.25 -10.75 -1.25 -22.75 10.5 7.75 -3.5 8.25 37.25 11.25 14.25 -14.25 -22.75 -10.5 -88.25 -88.5 29.75 -4.75 -7 -1 1.25 1.25 -16.75 -5.75 1.75 14.5 -12.25 25.5 -19.25 -1.25 1.5 2 -7.25 -25 -29.5 6 -24 -7.5 53 68.5 -19.5 -16.75 -2.25 -9 -51.25 -14 12.5 1.5 -10 12.5 -16 -21.5 -1 2.75 2.75 -8.5 -1.75 1.75 6.75 -13 16.5 -31.25 -56.75 -70.25 -52 12 -3.25 -35.25 -9.25 4.25 -26.25 14.5 -10.5 -16.75 -3.25 -2.75 15.5 8.5 -1.25 -31.25 -21.25 -0.5 -19.75 -16 -6.5 -19.75 -9 -10 -24.75 2.75 -0.25 -5.25 -10.75 -3 17.25 6.5 7.5 -4.75 15 -1.38168e-14 -6.25 -0.25 1.75 15.25 -2.75 -1.25 -5.25 -0.75 -1 -21.75 -36.75 -9.5 -9.25 -4 3.5 -22.25 11.75 -0.75 1.75 -5.25 10 -17.25 5.75 9 2.25 -5 6.5 15.25 3.25 anger
120.25 99 520.25 800.75 918 978.75 990.25 988 919 643 235.75 147 -0.75 18.5 115.25 43.75 22 8.25 1.25 -3 -39 -92 -102.75 23.5 127 135.5 642 760.5 858.75 904.75 916 913.25 893.5 798.5 431.25 174.25 -48 103 41.5 25.5 18.25 8.25 -5.5 -0.25 -8.5 -51 -173.25 47.75 135.5 199 662.25 760.75 822.25 900.75 934.25 898 889.25 839.25 509.5 134.5 -67 176 52.25 11.75 35.75 24.25 -6.75 -3.5 -6.75 -17.25 -210.5 19 138.25 260.75 573.75 617.75 644.5 706.25 767.5 750 729.75 777 566 71.5 -78.75 176.25 46.75 -18.75 42 -16.75 -6.5 -21.5 13.75 -0.5 -154.5 -7.5 143 400.25 342 230.75 224.5 539.25 557.25 207 253.25 480.25 597.75 144 -58 119.75 -63.5 -32.75 -9.5 214.75 -209.75 0.5 56.25 58.75 -59.25 53.5 274 547.25 699 640 690.5 769.25 812.75 664.75 562 694.75 768.25 432.75 6 101.25 -38 4.5 -5.52673e-14 114.75 -53.75 -43.25 9 64.25 -39.75 57.25 382 474.5 695.75 865 746.25 764.5 801.5 839.5 928 875.25 748 537.5 81 65.5 57.75 28.5 -107.75 96 -33 61.5 -2.5 -17.75 -57.5 80 314.25 431.75 632 787 695.75 376.5 481 842.75 835 757.25 629 614.5 129.75 43.25 41.5 37.5 -126.25 14 55 16.75 -10.5 -24.75 -23 -63 225.75 337.25 511.75 575.5 492.25 532.25 591.5 657 709.5 601 545.75 346.75 57.25 45.75 46.75 -34 -0.25 20.25 19 11.5 -11.5 -19 -41.25 -98.25 172 246.5 406.25 480 550 593.5 620.25 508.5 538 519.25 388.25 246.25 -12 63.5 27.25 -20 36 -12 8.25 -58 17 21.75 -98.75 -21.75 186.5 174.25 361 580 651.5 780.25 740 730.5 604.75 552.75 237 227.25 -2 4.25 41 49.5 22.5 11.25 -28.5 15 -27.25 -16.75 -5 1.25 185.25 192.25 324.25 372 424.75 467.25 540.25 570.25 511 587.5 231.75 223 0.75 1.25 37.25 8.5 4.75 16.25 25.75 -13.25 2 -24.5 -1.25 -2 1.25 -8.5 43.75 -8.25 -11.5 -15.75 -8.75 -3 10.5 52 48.25 9 -13.75 11 -19.25 -0.25 3.5 -1.25 3.25 2.82617e-14 9.5 5 -32.25 6.5 -7.5 16.5 15 4 -0.75 -7.25 -16.5 -9.75 -8 32 25.25 -1.75 -13.5 29 -5.5 -5 -0.25 -0.75 -4 4.75 4 23.5 -9.25 -10.25 14 16.5 10.25 -13.75 -34.75 -9.75 15.75 -22 -20.75 -8.25 -1.5 -20 -4.5 13.5 6.25 -11.75 10.75 7.75 1.75 -9.5 4.25 -2.75 -4.5 -24.5 0.75 8.75 -88.25 -189.75 -242.5 -119.25 -123 -191 -159.25 -71 28.5 -8 4.75 -5.75 -16.25 -31.25 9 23.75 -29 -11.5 19.75 27.5 34 -6 9.5 61.75 -26.5 -20.25 72 72.25 67.25 37 -87.75 -109.25 4.75 52 -10.5 -17.75 -27 14.25 -24 27.75 -40.75 15.5 -20.75 38.25 20.75 50.5 49.5 -5.25 73 158 131 24.25 19.25 160.75 137 136.25 41.75 54.75 15.5 1.75 56 -2.5 -35.5 2.75 5.75 4.75 -3 -14.25 -12.25 -63.75 17.5 -7.5 -17.25 -27 -42.75 -74 -46 -56.5 -13 -15.75 -34.5 33 53.5 -18.5 -0.25 3.5 3.25 -7.5 34.5 5.5 8.5 -5.75 -1 3.5 -37.25 -11.75 -13.5 -25.5 41.25 110 164 44.75 -23 -38.25 -22.5 -54.5 -17.75 -0.25 -2 -5 75.25 -51.5 5 -11.25 -13.5 0.75 12.5 -29 34.25 -28.25 -37.75 -86 -123.75 -96.25 -119.5 -133.5 -58.5 -36 -31.75 -86.25 32.75 10.25 3.25 -26.5 -5.25 30.75 -6 -3 25.5 -3 -33.75 63.75 2.5 -19.5 -12.75 22.5 -47 -56.5 -33.75 58 -3 12.25 -77.75 -21.75 -2.5 -14.5 -14.75 27.5 -16 15 0.25 31.5 -32 5.75 11.25 20.25 2 -4.75 -31.5 -24.5 0.5 -29.25 24 61 31.25 -3.25 -6.5 -0.75 1.5 -12.75 4.5 12 -8.5 0.75 24.5 -8.5 -8.75 -0.75 0.5 -0.75 3.25 1.25 9.75 -11 -65.75 -76.25 -94.25 -114.75 -24.5 26.5 3.25 -1 -1.25 0.25 4.75 -18.5 5.25 -6.25 -6.75 6.75 18.5 -16.5 -0.75 0 anger
181.5 40 181.25 616.25 844.25 907 910 835.5 575.25 316.75 200.5 220 -33.5 0.5 91.25 98.25 31.25 -2 7 -45 -87.75 -29.25 -13 14 94 52.75 485.75 682.75 804.5 861 893 883.75 790.25 592.5 194.5 144.25 -50.5 39.75 84.75 35.75 23 7.5 8 -14.25 -30.75 -77.5 -72 20.75 55.25 123.75 602.75 724 820.5 864 885 880.25 840.25 743.75 230 97.75 -31.25 113.75 59.75 19 18.5 -0.5 7.5 -5.75 -6.25 -56.25 -134 20.75 74.75 208.75 476.5 479.25 501.5 702.75 687 483.75 538.75 641 416.25 68.25 -60.75 153.75 22.5 -15.75 41.5 43.75 -58 -21.75 37.75 -0.5 -195.25 -3.25 176.5 293.5 321 234.75 275.75 601.75 611.5 285.25 285.75 473.75 539.25 280.25 -61.5 130.5 -55.5 14.75 35.25 148.25 -139 -27.25 2.75 88.75 -129.75 54.25 279 366.5 550.5 512.25 611.5 732.75 821 611.75 547.5 703.5 636.75 446.5 25.5 100 -4 0.25 45.5 88.75 -48.5 -57.75 36.5 20.5 -63.75 46.5 376.5 372.75 582.5 804 784.5 710.5 814.5 838.5 878 738.5 624.5 546.5 113 25.25 42.5 53 -86.5 107 -68 53 -25 -22.5 -37.5 -38 215.5 350.5 526.5 687.25 655.25 342.25 417.5 719.75 776.5 682 596.75 338 41 -25 53 33.25 -72.25 26.75 -1 41.75 -15 -18 -10.25 -174 179 212.5 490.25 627.25 626.25 584.75 651.75 733.5 722.75 675 378 91.75 -7 71 53.75 0.25 11.25 -3.25 15.75 5 2.25 -17.5 -220.5 -6.75 177.25 174.75 432 598.75 531.25 509.5 530 604.75 673 621.25 215.25 110.75 -1.75 15.75 45 15.75 8.25 -38.5 54.5 1.25 -5.5 -11.25 -143.75 35.25 176.75 169.25 282 414 502 566.75 595.25 599.25 528.75 527.25 132 145.25 -4.75 2.75 52 27.5 44.5 6.75 8.75 -13.25 -16.25 14.75 -39 26.25 183.25 150.5 195.5 309.75 430.5 536.5 576.25 517.5 416 503.25 230.5 245.25 1.75 -37.5 77 18.75 32 23 1.75 -35 -12.5 46.25 62.5 -20.75 -24 -11.5 58.25 66.75 4.25 12.5 33.5 71.5 102.25 37.25 3.5 -17.5 -12 2 27.25 -33.25 1.25 13.5 -6.5 19 -8.75 -10.75 -8 -9.5 -17 18.75 62.75 -6.25 -8 -10.5 -10.5 -7.25 14.25 71 -12.5 -19.25 4.5 20.75 -34.25 -4.25 -0.5 -1 1.5 -3.25 15.25 -8 0 7.25 -3.75 15.25 14.75 18 -6 -2 -20.5 -20.25 21.75 18.25 41 -9.25 -0.25 14.25 5.75 -11 -2 0.5 -5 12.75 5.25 7.25 -28 0.75 22.75 19.25 -59 -35.75 -150.5 -61.75 -77.5 -141.25 23.25 -52 36.25 -2.75 -16.75 -1.75 15 -31.75 0.5 23.25 -29.5 29.25 5.25 -7.5 8.75 -4.25 4 22 -48.5 -129.25 -38.75 18.75 42.5 -46.75 -168.25 -48.25 23.75 28.75 4 -13 -26 -18.25 19.75 18.25 -2 -45.25 24.75 32.75 23.75 -39.25 26.5 -1.5 71.5 127.25 139.5 9.25 12.5 164.75 134 64.5 8.25 -7 16 1 52 -9.75 -10.5 -21.75 10 -5.75 10 -38.5 -0.25 39 8 16.25 -18 -28.5 -41.5 17.5 16.5 -50 -18 -15.5 -14 35.5 35.5 -44.25 -2 2.5 -8.5 2 -3 14.5 6 -3.5 7 -61 -40.5 -57.5 -15 -24.25 -10.25 -60.75 -61.5 6.25 -15 3.5 -37.75 -94.5 -50 51 -1.5 -8.25 27.25 -27.25 37 -18.75 4.5 -0.5 -37.75 48.5 -1 -4.5 -1.75 -11.25 -25.25 49.25 16.25 -16.5 -8.75 -6.5 -18 -14.75 -2 -11 -4.25 -12.25 6.75 5.25 -9.75 -2 1.75 1 4.5 -0.25 -0.75 -13.25 -35 -24.75 103.75 163.5 159 101.25 -32 -20.75 -49.25 27.25 0.25 -14.25 -3 5.25 34.75 -10.5 3.5 -50.25 -1.5 4.75 36.75 6.75 1.25 -0.75 -33 -22.5 -3.5 164.75 158.75 -21.75 -14.25 -17.25 -2.5 15.75 -0.25 -2.25 2 -1 36 20.75 -28.75 -21.25 3.75 11.25 15.5 -13.25 -1.75 -21.5 -11 -18.25 -41.5 -81 -82.25 -56 -33.5 16.25 49.5 28.75 -1.25 -24.5 16.5 1.75 9 -18.5 17.25 -11.5 2 -13.75 37.5 -28.25 anger
95.25 56.25 113.75 80.5 64.5 91 134.5 168 200 226.5 152 71.75 -51.75 18.75 -4.25 2 -9 19 13 2 -3.14018e-15 17 -16 -8.25 94.5 122.5 315.25 296 225 313 461.5 503.25 472.75 391.5 216.75 71.75 -55.5 65 31.75 -13 -10.5 52.5 12 6.25 -36.25 -11 -72.25 -12.25 110.5 153.25 327 471.75 581.75 619.25 631 609.75 555.25 467.75 355.5 157 -48 56.25 44 36.25 22.75 -2.25 1.5 -12.25 -18.75 -33.25 -30.5 -32.5 191.25 183.5 156.5 217 397.25 493.75 475.25 383.5 254.5 203 338.5 218 -33.25 72.5 -8.5 27 48.25 4.75 -35.75 -41 -17.5 4 34.5 -58 259.25 260.25 233.75 177.5 145.75 341.75 398.5 155.25 191 234.25 353.5 322 78.75 15.75 -36.25 -28.5 1.75 129.25 -139.5 3.25 -8.5 20.25 17.5 -12 338.5 288.25 386 400.5 376.5 408.75 474 418 433.75 425.25 417 324.25 -3.5 38.75 -0.5 1.5 -4 88.25 -64.5 -3 3.75 -1.25 -12.5 -36.25 280.5 325.5 421 471.25 461.25 432.25 508.5 441.25 529 449.5 405.25 359.75 103 -1.5 10 5.25 -24.25 87.75 -71.5 38.25 -4 -20.5 -19.25 1.25 149.5 253.25 404.75 432.75 421 379.25 414 397 491.75 425 386.5 255 13 42.75 14.75 4.25 -31.5 59.25 -55 49 0.25 -7 -14 -78 134.25 202.75 398.5 451.25 444.25 353.25 366.75 476.5 487 456.25 393 204.5 1.75 65.75 27.5 2.25 -5.25 -4.25 2.25 32 -5 -12.25 -17 -97.5 126.5 160.25 364.25 419.25 340.25 296.75 304.75 346.75 425 425.75 381 202.75 0 29.75 29.75 -4.25 -25.75 -3.75 19.75 9.75 11 -11.75 -10 -91.25 122.25 122 302 358.5 327.75 318.5 307.75 304 346 385.75 374 204.75 0.25 -1 36 -1 -12.25 5 -5.25 7 15 2.75 -6 -96.75 111.5 123.25 288.5 346 373 327.75 322.75 319.5 375.75 375.25 370.5 295.75 -0.5 12.75 23.5 8 -5.5 -1.25 -3.75 3.5 8.75 -7.75 11.5 -56.75 -4.25 6.25 39.25 7.5 9.5 20 47 78.5 68 32.5 -8 -4.75 -3.25 10.75 -12.75 -3.61121e-15 -3 2 17.5 0.5 -7 -1 -15 -3.75 1.5 18.5 22.75 120.5 145 101.5 69.5 68.25 64.75 37.5 32.25 9.25 0.5 10 13.25 28.5 -21.5 -4 -7 6.25 4.75 -14 -15.75 1.25 7 3.25 0.5 -1.25 -13.75 -0.75 -5 -23.75 -13.25 6.75 11 15.5 6.5 -3.75 5.5 -6.75 6.25 0.75 -2.5 -8.75 4.75 2.75 10 -1 62.75 3 -73 -141.5 -143.75 -76.75 -87.25 -163.5 -162.5 -98 -41.5 22.5 4.25 -4 -6 -12.5 14.25 14.25 -27.25 -25 4.5 -2 35.5 0.5 16.25 31.75 -3.75 31.5 65.75 15.75 43 56.25 43.5 -11.25 7 16.5 -3.25 -10.75 -19.75 13.5 -3.25 11.25 -3 14.25 -12 -25.25 -2 3.5 -11.5 13.75 28 50.5 55.5 14.25 11 70.5 78.25 48.75 14.5 22.25 -13.5 -10.75 7.5 0.5 7 -14.25 13.5 9.5 6.25 -17.75 -1 20.75 -24 16.5 -9 -17.75 -26.75 7.75 9 -27.25 -14.5 -27 -8.75 30.75 17.5 -18.5 5 -3.75 -4.25 5.25 -4 6.75 -6.5 3 1.75 27.25 -12 -27.25 0.25 1.75 11.5 -63.75 -86.5 -4.5 -2.75 6 1 -44 -10.5 25.25 3.25 2.25 -7 -3.75 -5.5 38.5 -4.25 -3 2.5 -33 -1.25 -7.75 -5 -3.75 -6.75 97.75 103.25 30 -5.5 0.75 -1 -3.5 -0.75 -5.75 -1 -0.75 14.75 -13.75 12.75 -35.5 3.5 0.25 -7 3.5 0.5 -10.25 -10.75 -8.75 -87.75 -96.25 -79.75 -112.25 -25.5 -15.25 6 1.25 0 -11.75 -0.25 3.75 -51.75 3.25 21.25 -17.25 12.5 0.25 7 -0.75 -3.25 -4.5 -16 -9.5 -10.75 -7.5 -32.75 -11.5 -21.5 -7.25 -7 1.25 0.75 -0.5 2 2 4.25 -8 10.25 -12.5 7.5 -0.25 3 -3.25 -1.5 11.75 15 -2.5 20.5 14.25 38.25 24 7.25 -3.25 4.5 85.75 -0.5 15.25 -7 -1.5 11 10.25 5.75 -11 -2.75 -6.25 1.5 56.25 anger
174.75 36.75 177.25 608.75 837.5 905 908 850.75 607.75 329.5 207.25 210.25 -37.25 3.25 90.75 96.75 31.5 -1 8.5 -43.75 -80.75 -34 -22.25 11.75 88.25 53.5 484.25 679 801.75 859.75 890.5 889 799.25 626.5 241 136.25 -48.75 42 83.75 34.5 24.75 6.75 7.5 -9.5 -27.25 -65.5 -86 25.75 50.75 130 602.5 719.5 820 867.25 887.5 887.75 845 766.75 306.75 93.25 -29.75 117 58 20 19.5 2.25 7.5 -9.25 -10.5 -43.75 -167.25 21.75 60.75 210.5 481.75 487.5 514.5 706.75 714.5 512 531.5 641.5 495 75.25 -52.25 150.5 23.75 -15 43 41.25 -47 -34 36 4 -138.5 -3.75 162.25 294.75 324.5 246.25 261 571.5 630.25 286.75 291 438 604 248.5 -66.75 124.25 -48 9.25 29.5 146.5 -132.75 -26.75 10 87.5 -35.5 105 267.25 375 522.5 457.75 570 710 826.25 593.75 479.5 657.25 686.25 457.5 3.25 98 -20 3.25 56.5 81.5 -60.75 -74.75 19.5 48.25 -27.25 87.5 379.75 374.5 591.25 806.75 806.75 691.25 825.75 836.25 890.5 768.5 653.25 593.25 76.75 47 41.75 46.75 -71.25 98.75 -65.25 59.75 -13.5 -27.5 -43.25 52.75 248.5 374.25 532 702 674 375.5 445.25 697.25 796.25 694.5 611 501 71.5 -39.75 52 37.5 -70 28 -26.25 61.25 -8.75 -22 -10.5 -148.5 176.25 219 492 629.25 638.25 543.75 610 737.75 728.75 684.75 471 112.5 -4.75 84 51.5 8.25 5.25 -12.75 26 17.25 0.25 -14.25 -170 -9.5 179.25 188.75 453.25 609.75 515.75 504.25 513.5 583.5 689.75 641 334 91.75 -0.75 26.75 44.75 10.25 2.25 -22.25 33 1.5 8.25 -14 -216 21.25 177.25 169.5 308.75 445.25 527.25 540.25 549.75 634.5 559.25 538 213.25 119.25 -3.25 4 47.25 29.25 32.25 -16.75 32.25 -6 -22.25 -3 -128.25 33.75 184 159.75 204 324.75 457.5 612.25 668.75 570.5 448.5 483.75 230.75 215 0 -23.25 66.5 19.25 42.5 31.75 -2.25 -33.5 -16.5 53.25 -19.25 0.5 -25.25 -11.25 56.75 67.25 5.5 10 33.5 63.25 103.25 41.5 5.75 -12.75 -12.25 2.25 26.25 -31.75 0.5 12 -6 22.75 -2.25 -12 -11.75 -11.25 -17.25 20.5 62.75 -7 -10.25 -10.75 -12 -6 9.75 70.5 -2.5 -18.75 6.75 21 -34.75 -4.5 -0.25 0.25 2 -2.5 12.25 0.5 -9.5 -1.25 -2.75 16 15 19 -0.5 2.25 -12.5 -16.25 22 13.75 45.75 -3.75 -1.25 14 5.5 -8.5 -1 1.25 -5.5 9.75 8.5 2.25 -17.25 3.75 14.75 19 -71.25 -64 -165.5 -67.75 -69.5 -169 -12.5 -57.5 34.5 -0.75 -17.25 -2 5.75 -33.5 10 22.75 -27 -1 31 -19 32 -6.75 3.75 23.25 -50.5 -136.25 -60.5 5 34.75 -42.25 -180 -63 18 47.5 10.75 -11.25 -29 -25.25 19 19 -12.25 -26.75 25 31.5 20.5 -7 27.75 1.5 83 84.75 118 21 14.75 135.25 87.5 96.75 12.75 16 15.75 3.5 46.5 -17.75 17.5 -31.5 11.75 -14.25 10.5 -39.25 -6.75 36 23.25 5.5 -27.25 -20.25 -32.75 4.75 12.25 -43.75 -8.5 -17.5 -22.25 50.75 35.25 -34 -9.75 10.75 -14.75 23.25 -2.75 16.75 -0.5 0.5 -0.75 -38.75 -54.5 -19.25 -21 -30 -19 -131 -169.25 -9.25 -15.25 -5.5 -4 -73.5 -56.5 9.75 -3 -5.5 16 -17.5 8.25 -5.25 2.75 0 2.5 -51 2.25 -2.5 -3 -9.25 -20.25 74.75 41.5 -0.75 -10.75 -4.25 -20 -14 0.25 -6.5 -1.5 -11.25 12.75 8.25 -17.5 -9.25 2.75 -1.25 -32 -11 -2.75 -15.25 -24.25 -2.75 52.25 101.75 76.5 51.5 -12.75 -17 -55 13.25 1.25 -16.25 -0.75 8.75 43.75 -0.75 -3 -37.5 -1.25 1 11 15.75 1.75 5.5 -32.75 -38.75 -34.25 44.25 34.25 -23 -28.25 -21.5 -3.75 9.25 -1.75 1 6.75 -0.75 26.75 19.25 -29.25 -25.5 -1.75 -2.5 21.75 -16.25 -1 -7.25 -22 -25.75 -36.5 -83.75 -99.25 -32.5 -43.5 5.25 31.25 24 1 -17.25 18.5 0.75 -0.5 -11.25 4.75 -14.5 1.5 13.75 53.25 -14.5 anger
337 228.5 463.75 787.5 883.5 907.25 912.25 908.25 883.5 700 390.25 278.75 20.5 18 103.75 38.5 11 0.25 -2.25 -1.25 -15 -79 -91.25 -11.75 273 302.25 631.75 779.25 879.5 902.25 907.75 905.25 874 770 471 235 -28 44.25 45.25 34.25 11 9.75 2.25 -6.25 -14 -37.5 -125 -34 210 319.75 680.25 792.75 864 915 889.5 864 862 787 494.75 190.25 -6.5 96.75 36.75 11.25 32 1 12.5 -19 -0.5 -30 -134.75 -17.75 153.5 454.5 647 618.5 676.75 785.75 740.75 652.75 706 751.5 598.5 175.5 22 85 24.5 -31 37.25 33.75 -2.75 -33.75 49 -20.5 -67.5 -21 211 549.5 423.5 354 377.75 619.5 667.5 450.75 396.5 492 684.25 245.5 84.5 8 -51.5 -50.5 -13.25 175.5 -155 39.75 30.5 56 15.25 -81 340.25 718.25 688.75 624.25 645.5 782.25 831 717.25 678.5 788.25 823.75 430 144.25 26.25 -47.25 -7.75 12 92.75 -32 -48.75 2.5 43.75 -16.25 -137.5 356 716 846.75 860.5 770.75 787 803.75 870.25 908 893.25 804 451.75 114 48.5 14.75 -1.5 -75.25 86.5 -59.75 34.75 -2 -7.75 -48.5 -84.75 457.5 647.25 806 891 747 643.75 666.5 848 901.25 845.25 723.25 537.5 36 36.75 38 11 -90 66.75 -8 59 -6.75 -26.75 -39.75 -43.5 544 601.75 747 797.5 706 657.25 699.25 823 840.75 799.25 683.5 546.5 -47 32.25 34 -12.5 -41 -18.75 -2.25 6 -7.25 -19.75 -37 16.5 191.25 558.25 649.5 702.25 653 703.75 699.25 700 723.25 725 636.75 185.25 19.75 30.25 18.5 -3.75 -10 19.75 -5.75 -3.5 12.75 -7.5 -59.25 5.25 144.5 452 624.75 666.75 736 783.5 800.75 770.5 755.5 727.5 490.5 194.5 -8 116.5 18.75 -4.75 18.5 -7 -6.25 -25 -1 -8 -165.5 -1 139.75 235.25 586 615.25 652 796.75 789 742.25 745.5 646.5 244.75 229 3.75 83.75 23 -9.75 24.5 3.25 -16 2.75 -4.5 -48 -16.75 -15.5 -33.5 25 46.25 -12 -8.5 -4.25 -4.75 -5.25 -8.5 19.5 13.25 15.75 -8 29.5 7.25 -5 2 0.75 -2.25 -2.75 1 2.5 -11.25 -10.75 3.5 0.25 29.75 9.75 13 0.75 4.75 1.25 4 15.5 13.5 -38.5 -17.5 8.25 -7.75 -0.25 -3.5 2.25 0.25 -1.25 -3 15 22.5 -5.5 -27.5 20.75 7.25 0.25 -19.5 4.5 -14.5 -20.5 0 5 15.25 4.25 2 17.75 -11.25 -8.25 13.5 -6.5 7.5 1.5 8.5 -1 -9.25 9.25 0 27 -38 -112.5 -203.75 -89.75 -76.25 -235.75 -117.5 -35.5 19.5 -2 9.5 -30.5 16.5 -49 13.75 37.25 -40.75 -5.25 57.5 -12.5 22.5 -0.5 24 30 -11.5 100 101.25 57.5 65 104.25 127.5 11 32.25 50 20.5 -12.5 22.5 -16.5 -20.75 19.5 -8.5 16.25 11.5 -50 13.25 -37.5 22.25 24.25 96.25 109.25 84 10.25 3 102.75 135.5 87.75 15.25 10.5 2.25 13.25 24.25 -9.75 -8.5 -24.25 31 23.75 17.5 -26.75 -14.75 7 5.5 -20.5 -19.25 21 -21.75 8.03887e-14 -8.75 -17.25 4 -24.25 -23.5 21.75 -21.5 -2 7.75 1 -17.75 6.5 -22.25 20.25 -6 -7.25 4 43.25 13 -10.75 -5 5.5 -34.5 -116.25 -139 21 -3.25 -0.25 -11.75 -2 -0.5 -1.25 2 3.5 -47.5 2.75 1.5 -6 0.75 0.75 0.25 6 -95 -11.75 -26 -63.5 -11 24.75 45.25 -65.5 -34.25 -23.25 -11.5 -123.5 43 -4.25 -5 -27.5 58 10.75 14.75 -17.5 4.75 -1.25 1 -39.5 -35.75 -9.75 -11 -13.75 -37 18.75 18.75 -16.5 -0.75 -7.5 -18.75 2.75 -21.25 5.25 0 -18.75 25 4.75 -9.25 -1 -1.25 2 -21.75 7.75 2 -47.5 -7.25 -23.25 -35.5 15.5 -40.75 -38.5 -3.5 -5.5 -60.5 2 4.5 39 -8.25 0.25 3 26 -27.75 18 -4 -5 -31.5 -8.5 -1.75 -55.75 -15.5 7.75 23.5 -21.25 -4.5 34.75 -5.5 -42 -45.75 9.5 1.25 -70.25 14.5 5.75 -6 -9.75 20.5 -13.75 -0.5 -23.5 38.75 -7 anger
14.75 77 528.75 724.5 828.5 869.25 782 659.25 500 247.75 69.25 100.5 1.25 46 72.75 42 -3.5 -8.75 -30.5 -32.75 -52.5 -73.25 0.75 11.5 12 195.25 745.5 911.5 1010.25 1020 1005 966.5 886 728.5 169.5 53.5 1.5 145.75 32.5 42 4.75 0 -9.5 6.5 -27 -63.5 -117 16 6.25 313.5 781.75 945 1012.25 1018.5 1018 1005.75 1013 985.75 462 81.5 1.25 219.5 33.75 25.5 3.75 1 2.84187e-14 -5.25 5.5 -18.75 -303.5 -6 60 374 693.25 694.5 718 779 790 687.75 698 760 674.25 136.75 -50.5 227.5 5.75 -7.5 4 96.5 -100.5 -1.75 28.5 20.5 -219.75 13.75 217.25 461.75 388.75 202.5 194.75 525.5 575.5 237 236.5 500.75 785 347.5 -83.25 140.75 -64.75 -42.5 -10.75 251.5 -243 30.5 37.5 96.75 -19 125.5 420.5 583.75 736.5 672.25 641.5 855.75 924.75 726.25 807.25 934.25 918.25 575.75 -107 120.75 -38.5 6.75 -9 155.75 -87.75 -11.75 28.75 27.25 -24.75 205.25 646.75 516.25 819.25 952 920.5 964.75 1006 992.5 1017.5 974.5 841.25 816 -30.25 129.75 40.25 19.5 -55.5 54.25 -12.5 22 -0.5 -21 -22.25 69 659.75 527.75 699 927.5 855 629.25 668 950.25 1012.75 882.5 766 758.75 70.75 -18.75 67 44 -119.5 92.25 -36 53.25 -5.75 -69 8 -1.75 379.5 497.75 591.75 826.5 790.75 676.25 778 931.75 958.5 801.25 741.25 427.75 9 71.75 65.75 24.5 -4.75 -34.25 62 10.25 -8 -59.25 -36.25 -2.75 372 354.25 536.25 622.25 676.5 717.75 749 759.25 740.75 774 610 423.75 9 22.25 -19.75 38.25 3 -8.25 30 -22.25 18.25 19.5 -125 -1.75 315.75 24.25 390.75 509.25 589.75 624.75 663 755.5 722 745.25 203 415.25 -37.25 -12.25 81.25 13.75 15.75 0.25 26.5 -4 3.5 -9.75 -40 -0.75 324.25 52 341 450.75 594 640.75 706.25 795 709.5 728.25 159.25 352.5 -11.75 -52 83.5 13.25 48.5 25.25 3.25 -2 -45.5 64.25 20.75 -65 1.25 25 98.25 81 106.5 132.75 125.5 85.25 91 96.25 -22.25 -17.5 -2.25 22 -18.75 -1.5 18.5 4.75 -16 -1.75 6.5 -24.75 -4.75 7.5 0 32.75 20.5 38 7.25 0 10 44.5 90.5 140.5 82.5 -14 1.5 21.25 -1.5 1.5 -3.25 0 8.5 -5.5 13.5 23.5 -62 -7.5 0.25 24 1.75 -22.5 -7.75 -1 -0.5 -12.75 -4 -1.75 50 7 -1.75 17 -1.25 -16 3.75 1.5 -0.5 -3.75 3.5 -2.25 -33.5 -14.5 49.5 23.5 -102.75 -211 -238 -160 -160 -283.25 -263.5 -208 56.75 45.25 -47 -19 -39.25 3 -14 67.5 -89.5 0.25 16 23.5 87.75 26.25 26.25 27.25 46.25 7 104.75 83.5 96 101 72 27.75 34.5 29 51.75 -17.75 -28.25 26 -32.75 0.5 -6.5 30.5 -22 31.75 13.5 -24 36 -3.25 106 124.25 112.5 50.75 56.25 160.75 126.25 63.25 12.75 29.75 -16.5 -3.25 40 -12.25 4 -48.25 62.75 -12.25 5.75 -24.75 -5.25 3.25 81.75 -12.75 -49.75 4.5 6 15.75 8 -19 1 -17.5 -28.75 94.5 52.75 -18.25 0.25 17 -17 -14.75 6.5 14.5 0 -12 -0.25 -55.5 -109.25 -19.25 -10.5 2 -22.5 -207.75 -182 -11.25 -3.25 -36.5 -7 -134.75 23.75 0.25 9.5 5.5 -36 -8.75 11 27.75 -4.75 -10 11 -15.25 1.5 -0.75 -21.25 -57.5 -47.75 38.25 -34 -69.25 -45 -2.25 -16.75 -4.25 0 10.25 -23.25 -10.5 28.75 -0.25 -28 -5.75 0.5 20.25 -26.25 1.25 -2 -95.25 -16.25 -22.25 118.5 70.25 24 87.75 19.75 -5 -53 2.75 0 -24.25 18.75 27.75 30 -40.75 10 25.25 -39.75 2.5 -12 -1.75 -24.25 -15.75 -48.25 -19.75 -40.75 38.75 80 -1 2.5 0.25 -49 -4.75 -25.25 3.75 2.25 -25.25 16.25 39.25 -25.5 -3.5 18 -3.75 34 1.25 2.25 34 17 -21.25 -2.5 -14.25 -3.25 5.5 -74.5 7.75 5.25 -44.5 15.25 -34 9.5 -4.75 15 8.25 -14.25 -7.5 -15.5 -13.25 13.75 -58 anger
266 85.75 440.75 765.25 964 1004.25 1008.5 1002.5 887.5 573.75 414 226 2.5 -18.25 119.75 66.75 26.5 3.25 2 -9 -52.5 -106.75 -31.5 40 227.25 96 604 802 931.5 973.5 982.75 979.75 937.5 802.75 365.5 177 -38.25 78 81.5 44 19 6.5 1.25 -0.75 -15.5 -73.75 -97.5 -4 213 132.25 619.5 826.25 928.25 969.5 981 969.25 952 825.25 304.5 87.5 -59.5 121.25 63 43.75 5.75 7 5 -2.75 -12 -58.25 -160 22.5 223.25 249.25 557.5 541.25 542.75 787 763.75 580.75 688.75 781 504.5 89.5 -53.25 218.25 8.5 -26.75 34.25 58.5 -46.25 -26.25 65.25 16 -231.5 15.5 199.5 328.75 441.25 240.75 162.5 516.75 579.75 196.25 267.25 533 713.5 121.5 -94 241.75 -75.75 -9.75 23 241.25 -239.75 -9.75 35.25 98 -88 17 297.5 429.5 735.25 579.25 595 718.5 861.75 663 702.5 875 827 400.25 38 169.5 -1.75 -16.75 13.5 111 -85.25 -19.5 27.5 32.5 -51.5 78.25 280.75 425 709.75 904.25 859.25 753.5 848 827.25 977 912.25 746 602.75 53.25 47 55.75 32.75 -79.25 127.5 -117.5 72.25 2.5 -22.75 -57.5 53.25 223.75 401.5 574.25 799.75 799 511 613.5 799.25 845.75 793.25 709.25 646.75 2.25 -27 68.75 38.25 -69.5 71 -16.5 1.75 20.75 -36.25 2.25 -68.25 221.25 268.5 476.25 619.75 653.5 526.75 575.5 739.5 747.75 683.75 617.75 271 2.25 32.5 29.75 33.75 -24.5 -50.25 54.5 39 -34.25 -0.25 -121.75 -20.5 224 235.25 430.5 571.75 601.75 544.25 572.25 746 716.25 690.25 398.75 110.75 1 2.25 42.5 33.25 11.25 -30.75 55.75 1.5 -16.75 11.75 -280.25 42.75 219 221.5 262.75 470 675 714.25 767.75 773.5 689 655 417.5 86.75 1 -2 65.25 33 25 43.25 -38.75 18 -30 4.5 -315 11.25 211.5 204 172.5 405.75 510.25 580.75 606.75 641 566.25 663.75 587.25 82.75 3 -13.5 78.5 2.75 65.75 -15.25 5.25 -27 -11.75 73.75 -192.75 7.75 0 -18.25 101.75 48.75 0.5 -5.25 -2.5 5.5 21 77.25 17 -6 -3.5 22.75 -8.25 -9.75 -3 -0.25 -2 8 7 15.75 -3.5 -27 -13.75 17.5 2 0.5 -1 1.5 3.75 0.25 -3.5 24.75 -27 -22 -9.25 15.5 -3.5 2.5 1.5 0.5 0.25 -1.25 -0.5 15.25 -36 14 -9.5 12.25 6 5.25 -16.75 -14.5 -13 -20.75 2.5 0.25 -9.5 -9.5 -10 11.25 1.5 -6.25 -9.25 2 4 -0.75 5.5 2.75 -9 2.5 -4.75 18.25 -72.5 -220.75 -301.25 -107.5 -115.25 -331.25 -224.75 -63.5 70 6.5 -5.25 14.25 -42.5 -37.75 23.25 45 -60.25 -19.25 60.75 45.5 5 0.5 3 25.75 -9.75 -76.75 62 14.75 54.75 78.75 -70.25 -46 45 38 0.5 -2.25 -46.75 57.75 34.5 29.25 -34.75 2.75 -48.25 57 34.5 8.5 11.5 12 53.75 172.75 148.5 27.5 30.75 170 167.5 72.5 2 77.75 54 -20 42.75 -13.25 7 -48 41.75 -19.5 4.5 -32 -7.5 10.75 -16.25 0.5 -30.25 -8.75 -51.75 22 11.5 -86.25 -7 -11.25 -28 96.25 -22.75 -44.5 7.75 7.75 -33.25 14 -8 21.75 6.5 -13.25 7.5 -0.25 -3.25 -37 -39.25 -42.25 51.5 -147 -101.5 91.25 -42.75 -35.25 10.25 -75.75 -1.75 20.5 -1.75 -4.75 30 -47 82.5 -15.25 1.25 5.25 7.25 -59.75 -0.75 -15 -12.75 -56.75 -140 -66.75 -73.5 -153 -14.75 -9.25 -54.75 -57.5 -0.75 -7 -21.25 -10.75 -6 48.25 -37.5 25.5 12.25 2.75 -64.25 49 1 -5.25 -29.5 -18.25 18.25 -83.75 -72.25 -20 -40.75 -2.25 -46.25 -30.75 -1 -1.25 21.5 5.25 -30.25 -12.75 14.25 23.5 -11.75 4.25 -0.25 -18.75 -0.5 -6 -48.75 -29 33 1.25 0.75 60.5 -7 -5.5 15 5.75 -0.5 -4.5 -30.25 -10 44 -9.75 2.25 -23 11 15 -9.5 -0.75 0 -9.5 4.5 2.75 -65.75 -53.25 -37.25 -85.5 -42.25 17.25 63.25 -1.25 0.5 -8 37.5 -5.25 -26.25 -9.25 25.25 10.5 4.75 1.25 63.25 -15.25 anger
52.5 65 33 50.5 331 562.25 636.25 506.25 231.5 26.25 19 306.5 1 23 -24.5 40.5 83.5 33.25 2.25 -54.75 -83 -14.25 -7.5 275.5 50.25 59.5 21.5 314.75 551.75 612 648.5 633.75 464 168.25 32 38.5 -7.25 -15 12.5 107.75 18.75 13 -0.5 -18.25 -68 -76.75 1.88411e-15 38 53.75 44.75 115.25 467.25 571.25 538.75 610.75 580 527.5 291 51.25 1.5 -0.75 -12.75 59.75 70.75 -3.25 -5.75 26.25 -32 -17.5 -91.5 -18.25 -1 53.25 59.75 203.5 304.75 287.25 335.25 275.75 245.75 421.75 334.25 103.75 6 -0.75 25.75 89.5 -30.25 -19.75 6.75 -20.25 8.25 48.75 -51.25 -79.75 -6 171.5 49.25 174.75 122 52 427.75 176.25 61.25 111.25 223 168.25 38 -129 25.75 37.25 -52 13.5 134.25 -102.25 3.25 12.25 34 -123.25 6 379.25 56 188.25 256.25 386.5 758.25 495 357 314.5 400.5 237.25 139.5 -278.75 35 19.25 19.25 60.5 148.75 -75.5 -21 8 19 -114.75 -37 641.75 254.75 487 627.5 571.75 808 619.25 618.5 621 504.5 331.5 440 -257.75 7.25 43.5 16 -56.75 97 -111.75 61 -33 -34 -70.5 105 416.5 359.25 528.75 594 519 469.25 404.5 491.5 507.5 414.75 245.25 631.75 -129.5 51.25 21.75 12.5 -49 48.25 -74 68.5 -30 -25.25 -85.75 114.25 75.75 137.5 485.5 515.25 598.25 237.75 209.75 510.75 462.5 361.75 129.25 153.25 -24.25 130.5 24.5 13.25 -57.75 -59.75 50.25 42.25 -30.5 -13.75 -112.75 47.75 94 51.5 403.75 436.75 389.25 326.5 289.5 388.5 342 329.5 39.25 14.25 -33 31 24.25 -6.25 12.75 -38.5 39.5 -1.5 7 1.5 -39.25 7.75 696.5 732.5 467.75 269 353.25 255.75 195.25 274 230.75 270.25 320.25 497.75 22 -13.5 -156.25 7.5 5.25 -56.25 27.75 4.5 -29.25 46.75 -8.75 58.75 907.25 888 635.25 270.25 264.75 186.25 184 181.5 193.75 290.75 594 616.75 0.25 -14 -136.75 -47.25 10.25 -7.25 -12.5 17.5 -2.25 50.75 1 8.25 -7 5 -20 42.5 130.5 103.75 67.75 108.25 102 19.25 -0.5 -95.5 1.5 3 11.5 32.5 -7 -3.25 -5.25 9.25 -9.5 -11.25 5 -69.5 2.75 -8 15.5 61.75 3.75 -8 -6 25.75 28 39.25 5.5 -30 -0.75 -14.5 7.5 -8.25 -12.25 10 -3 3.75 -1 -4.75 -3.5 -30.5 -1.25 -0.25 31.75 -30.25 -24.75 -60.75 -59.75 -115.5 -9 29.5 3.25 0 0.25 11.25 16.25 -10.75 -1.25 -24.25 1.75 -9.5 36 -7 -6.25 -0.5 -1.25 3.25 -30.5 -47.25 -90.75 -30.75 -96.75 -122.75 -76.75 -82.75 23.75 0.5 -0.25 6.25 -12.5 -6.25 -0.75 37.75 -18.75 -10.25 10.25 39.75 -29.75 -0.5 72.5 -0.75 -125.75 -100.5 -1.5 123.75 57.25 6.75 -73.75 -91 7.25 9.5 -74 3.75 -59.25 56.5 7 58.25 -33.25 -4.25 -23.75 46 9.75 14.5 75.75 11.5 101.25 105.75 121 26.25 52.5 140 158 89 29.75 41 -16.25 10.5 12.25 -3.25 6 -19.25 28 -9 5.5 -34.5 -15.25 -33.5 68.75 134.25 11.5 46.5 -11.25 24 39.75 -30 6.5 -15 9.5 93.5 29.25 -44.25 -4 7 -22.75 -20 -22.25 20.5 -2.5 -2.5 33.5 73.5 -221.5 -56.75 -6.25 -36 -43 -234.25 -240 -35 -35 -23.25 -52.25 -32.25 32.5 46.25 2.75 -2.5 -37 17.75 -8.5 35 -0.5 4.75 -38.25 23.25 4.25 -24 -12 -2.25 3.75 77.25 51.75 -17.25 -5.5 -1.25 -18.25 -62.25 -0.75 -27 1 4.75 25.75 -28.25 13.25 -23.75 0.5 6.25 12.75 -26.75 14.5 -7.5 -43.25 -28.25 -4.25 -18 -6 112.5 -13.5 -18.5 -19.75 -12.75 -6.5 -15 1.25 4.75 22.25 17 16 2.5 -16.5 3.5 19.75 -8.25 153 162 81.75 -35.5 -158.25 -135.25 -99.75 -151 -42.25 16.25 269.75 150.75 -3.5 15 -66.25 -1.44449e-14 -37.25 31.75 -26.25 17.5 25.75 17.75 5.75 -58.25 15.75 -3 3.75 34.25 2.25 10.25 14 -1.5 -2.25 -4.75 -18.5 -4.75 -3.25 -7 15.75 -30.25 19.75 -4.25 -2.5 0.5 -0.25 -3.75 3.5 1.75 anger
68.25 3.25 144.25 515.5 685.75 690.75 771.25 762.75 545.75 282.25 59.5 96.75 -68.25 3.25 75.75 91 1.25 2.75 26.25 -31.75 -72.75 -56.25 -31.5 70.75 70 88.75 503 717.5 812.75 827.5 869.25 900.5 828.5 650.75 160 75.5 -70 76.25 62 47 -6.25 0.5 17.75 -7.5 -21.5 -106.25 -108 55.5 54.5 220 567.5 702 825.25 843 863.5 860 820.25 730.5 327.75 63 -54.5 137 47.5 18 -5.25 -12.5 21.5 -23 -14.25 -37.5 -199.25 32.5 65.5 280 457.25 444 562.25 695 645.5 485.5 525.75 629.25 448.75 66.75 -60 120 8.25 5.5 31.75 45 -43 -27 59.25 13.25 -185.75 34.75 265 288.75 287 105.5 155 501.25 414.5 164 130.75 391.5 522.75 243.5 -59.5 98.75 -40.5 -53.5 1.5 176.75 -166.5 15 83.25 97 -94.75 120 273.25 360.25 463.75 386 482.5 678 725.75 566.5 544.25 728.75 681 316.5 -29.75 125.75 -63.25 7.5 34.5 152 -52.25 -45 24.25 42.75 -62.5 27 368 344.5 588 717.25 661.25 720 711 784.25 822.75 741.25 622.5 569.25 -66 70 57.5 13.75 -85.75 118.5 -83.5 52.25 -16.75 -27.75 -32 -21.75 407 393.75 511.75 680.75 556.25 327 353 687.75 739 650.5 576.25 591.5 133.5 -49.75 55.75 21.25 -81.75 57 18 27.25 -12 -25.5 -12.75 33 131.75 202.25 416 529.25 587.5 492.75 631.75 732.75 641.75 630.5 550.25 190.25 -9.25 81.75 9 23.75 9.5 4.25 34.25 -15.75 -7.75 -3 -59.75 1.25 110.25 64.75 378 449 322.5 324.25 364 400.25 540 576.5 416 192.25 -12.75 29.75 17 -14 -27.5 20.75 6 8.75 51 7.5 -152.5 4.25 143.75 13.25 241.5 443.5 535.5 465.5 492.5 629 580.75 515.25 248.25 190.25 -21.75 -9.25 128 52 -12 -2 22 33 -58.75 29.25 -77.75 4.75 226.5 220 175 410.25 548.5 619 651.25 642.5 494.25 546 371.5 253.25 43 -52 75 3.75 56 9 23.75 -38.5 -24.25 58 -44 14.25 -0.75 3.25 77.25 127 99.25 82.75 106.25 149.75 180.75 82.25 7.5 3.25 0.75 3.25 25.75 -7.5 3.75 -2.25 9.25 20.25 -2.75 -37.25 -8.5 9.25 1.5 42.75 48.5 4 4.25 -13.5 -14.75 -1.5 3 56.25 41.5 -0.5 -1.5 33.25 -12.5 -6.5 -1.75 -14.5 7.75 -3.5 4 29.25 -23.5 -2.5 6 28 -5 -15.5 -17.75 -1.60777e-13 8.5 -25.5 -12.25 1 43.75 -2.5 -6 0 4 -15.5 9.75 5.5 2.5 -10.5 7.25 1 -24.25 -5 7 0.5 -144.25 -214 -203.25 -59 -123.5 -289 -97.75 -46.25 16.75 14.75 -1.5 -2.5 -35.25 -6.5 33.25 35 -63 0.5 48.75 12.75 17.25 4.75 114.5 15.25 -97 -37.5 34.5 47.75 74.5 61.5 30.75 -28 42.25 -20.5 31 -5.75 -38.5 6.5 -30 35.25 -21.5 22.5 33.25 26.5 19.75 -73 38.25 3.75 99.75 133 122.5 4.01944e-14 14.75 141 161.75 75.25 8 -33.5 -67.75 9.25 35.75 10.5 -4.5 -15 34.75 -4.5 2.75 -40.75 3.5 -86 88.5 4 -33.5 19.75 -38.75 20 -4 -47.25 -8.25 -44.75 -24.5 59.25 40.5 -34.5 8 0.25 -21.75 -14.5 -18.5 17.75 -10.75 -4.75 13 42.25 -39 5.75 -16.25 -38.25 1.25 -106.5 -86.5 27.25 -28 -12 -2.75 -136.5 54.5 -8.75 -12.25 4.25 37.25 -1.5 21.5 -41.25 4 3 -3.75 -60 -40.25 -70.75 -34.5 -36.75 -25.5 69.75 7.25 -35.25 -23.25 -10 -16.25 -1.25 -21.25 37.75 -7.5 2.75 -2.5 4.25 -12.25 8.25 -2.75 1.5 -17.25 -0.25 36.75 -28.75 9 6.5 -57 -128.25 -145.5 -70.25 -7.5 -23 -48 0.25 -9.25 -31.75 18 -14.5 -16 -25.75 6.5 35.25 16.5 6 -18.5 2.25 4.75 -1.75 -59 5.5 15.5 -22 -7.5 -13.5 18.75 4.25 -1.25 -0.25 7.25 4.75 33.5 15 -28 -1.5 8 11.5 -11.75 14.25 2.75 0.25 59.5 88.5 13 2.25 -35.5 56.5 53.75 -41 -17.75 1 129 58.75 45 -28.5 -14 2.75 21 15.5 -10.75 -19 14.75 4 19.5 12.75 anger
722 965.25 690.25 746.75 951.25 923.75 895.5 820.25 599.75 659.25 998.5 660 271 -54.75 -70.25 107.75 -4.25 -16.25 2.82617e-14 -35.25 -58.25 70.75 21.5 -261.5 806 490.5 690 766.75 816.5 813 805.75 749 661.25 521 365.5 697.5 145.5 -28.5 37.5 12.25 2.5 -1.5 -9.75 -25.5 -15.25 -76 135.5 -174.5 456.25 498.5 719.25 779.5 852.75 851.5 855.75 743.5 679.25 582.5 267 464.75 -150.75 168.5 19.25 15.5 6.75 2 4.75 -25 -20.75 -27.5 -123.5 112.25 290.75 635.75 582.75 536.25 509.75 553.75 506.75 429 386.75 428.5 507.5 271.25 -143.25 9.75 -7.75 -21.75 -5.25 36.75 -16.75 -25 -4.25 22 -12.5 158.25 294.5 586.25 314.5 162.5 129.5 581.25 331.75 104 156 295.75 521.5 231 -92.5 -58.75 -46.5 -38 12 184.75 -179.25 6.5 20 60.75 20 51.5 376 625.75 593.75 429.5 476.25 721.5 548.25 436.75 461.25 614.5 569.25 371.5 5 54.75 -58.25 -10.5 50.75 112.5 -88.25 -8.75 20.25 41.5 -35.75 49 403 584.75 735.5 770.75 679.5 766.25 644.5 567.25 697 583.75 482 424.25 40 45.25 19.5 -0.25 -78.5 100.25 -107 82.25 -13.5 -30.75 -20 -25.25 309.5 446.5 577.75 680.75 595.75 420.5 339.5 453.25 578.5 489.25 441.5 221.75 -6 73.5 24.25 8.75 -12.25 64 -85 94.25 -10 -25.75 -9.5 104.25 326.75 380 555 554 626.75 502.25 385.5 490.5 472 468.25 414 206.25 1.75 82 -0.5 -1 13.25 -60.75 6.5 28.5 -17 6.75 -51 95.25 321.25 316.75 539.5 571.75 452.75 327.5 272 305.5 462.25 437.25 425.25 257.5 4.75 3.25 8 12.75 -39.25 -17.5 -25.5 44.5 26.75 5.25 -14.75 4 319.5 302.75 496.75 494 473.25 495 443 432 397.5 395.25 429.5 295.75 3.5 -11.25 21.25 -12 7.75 -9 -4.5 -6.5 -10.5 3.75 32.5 7.25 435.5 673.5 600.75 462.25 447 452 399.5 359.25 327.75 338 422 401.25 53.5 74 -64.75 -12.75 4 -7 -7.5 -5.75 -7.75 5.5 38.5 3.25 41.5 -54.75 -114.75 93.25 -36.75 -23.25 -33 -9.25 99.25 -189.25 -21 37.5 -14.5 -54.75 119.75 -73.75 -3.25 20.75 -4.5 11.25 27.25 -84.75 21 -16 -18.5 -93.5 -5 6.25 -14 -14 -4.25 21 1.75 25.5 -158 -26 -50 167.5 1.5 -1.25 -2 2.5 3.25 3.5 -10.75 34.5 -114 48 -70.25 53.5 -1.75 -38 -27.75 16 -4.25 -75 -6.75 16 73.5 -77.25 -20.25 -40.5 -1.75 -13 12.25 10.5 -12.25 8.5 7.25 -2 -11 69.25 24.75 9.75 -150.25 -185.25 -182.25 -103.25 -142.75 -194 -159.25 -121 8.5 -11.75 -3.25 -27.25 -23.75 -1.25 1.75 37.75 -10.25 -17 20.75 9.5 33.5 -33.75 6.5 1.75 -31.5 -62.5 8.5 61.25 49.25 19 10 6.25 17 24 17.5 11.75 -33.5 27 -6 36.75 -44.75 9.5 -17 26.25 -14.5 3.5 24.5 0.25 113.25 123 140.75 14.5 33.75 111.75 107.75 82.5 -7.25 62 36.5 30.25 9.25 -9 13.25 -26.5 24.25 1.25 9.75 -31.5 -3.25 -30.5 -18 -34.75 -59 9.75 -30 6.75 25 -28.25 -22.5 -33.75 -22 -13.25 -24 -12.25 11 14.75 -21 -0.25 1.5 -0.25 -2 -2.25 10 -27.75 14.5 -22 -18.75 -32.25 5.75 -131.5 -79 7.75 -42.5 -18.75 -4.5 -39.75 2 19 -8.25 -6.25 26.75 -16 26.5 14.75 -3 7.25 -5.5 46.75 -1.75 -24.5 -0.5 -24 -21.75 59.25 61 -20 -8 -5.25 -11.5 19.75 -1.75 -14.5 1 -6 -5.25 12.25 -4 -18 9 -1.75 -5.5 -37.25 -0.25 -7.25 -17 -6.75 14.75 4 21.5 22.5 -37.75 -8.75 0.75 -5 5.25 -11.75 1.5 -2.75 35.75 3 -5 7.5 -12.25 5.25 10.75 0.5 -5 2.75 -2.75 -5 -11.25 70.5 120 -5 1.5 -15.75 1 33.75 -2 -0.25 12.75 -3 2.25 52.5 -35.5 -11.5 2.5 -6.25 9 10.25 127.5 286 -1.25 -13.25 -30 -61 -55 -31.25 -21.75 -6 -0.5 9.75 58.5 -14.5 13.25 -8.25 -4 -8 1 8.75 8.75 7.5 -6 10.75 anger
0 22.25 332 893 1019 1020 1020 1018.5 859 409.25 75.5 146.75 0 17.75 138.5 80 1 0 0 -1.5 -94.5 -127.75 -37 138.25 0 156 718.5 892.75 986.5 1018 1019.25 1016.5 975.5 723.75 139.5 55.25 0 133 74.5 30.75 17 0.5 -0.75 -1.5 -25 -87.25 -88.5 23.25 0.25 340.5 772 911.5 990.25 1014 1015.5 1009.5 1013.5 901.5 272.75 47 0.25 212 55.5 12 13.75 -1 1.5 4 -5.5 -62.5 -193.25 30 29.25 530.5 646.25 696 725.75 810.75 813.25 656.25 646.25 704.75 459.75 216.25 29.25 84 23.75 -5 36.75 16.25 -56.25 -31.25 24.25 3.75 -233.25 125.75 147.25 642.75 353 198.5 247.75 630.5 727 264.5 219.75 443.25 697.25 346 121.75 -25.25 -71 -35 12.75 202.5 -192.5 -23.5 26.25 113.75 -62.25 64.5 253 746.25 745.5 585.25 677.25 872.25 968.75 678.25 609.5 809.75 813.25 502 75 74.25 -47 -8.25 48.25 85.75 -50.25 -73.75 31.5 59.75 -102.25 -117.5 353.75 632 856.25 1005.25 925.5 847.5 991.75 905.25 1019.25 973.75 810.75 441.5 45.75 78 47.75 11.75 -92.5 103 -28.25 77.75 -0.75 -32.75 -34.25 -105.5 374 540.25 677 886.75 960.5 612.25 707.5 884.75 988.75 870.75 663 412.75 -10 45.75 38 63.75 -40 -0.25 -5 120.75 -23.25 -54.25 -105.5 -73.75 136.25 399.75 611.25 699 702.75 726.5 748.5 763.25 777 712.75 514.75 344.5 -48.25 118.25 -1.25 43 -16.75 -8 40.5 -21.25 -10 9.75 -144.25 -0.5 45.5 184.5 577.5 674.5 753.25 752.5 730.25 808.75 728.25 647.5 270 285.5 -38.5 170 56.5 13 31.75 -26.5 38.25 -26.75 -0.75 -69 7.5 23 129.25 232.25 437.25 579.25 713.75 670.75 684.25 778.25 679.75 506.25 213.75 268.75 12.25 101.75 38.25 30.75 0.25 -3.75 4.25 65.25 -48.25 -136.25 -33.75 -18.25 553.25 395.75 428 445 539.75 585.25 628 623.25 537.25 485 191 263.5 27.25 -28.75 -7 18 32.75 4.75 19.5 -37.75 21.25 -199.5 -2.5 25.5 0 3.75 113.5 17.5 -1 0 0 1.5 53 80.75 30.5 -30.75 0 3.25 15 -20.5 1 0 0 1.5 17.5 -8.25 -5 -28.25 0 69.5 43.5 4.25 -5.5 -2 -0.75 -1 14 65.25 28 -15.25 0 49.5 -14.5 -3.75 -1 0.5 -0.75 -1 6.5 17.25 -24 -14.25 0.25 20 15 6.5 -5.75 -3 -4.5 -10.5 6 21 27.25 19 0.25 6.5 7.5 -13 3.75 -2 1.5 4 6 -11 -23.75 21 25.75 61 -147.25 -246 -248.75 -111.75 -85.75 -274.75 -212.75 -154.25 65.75 104.75 25.75 -49.5 -38.75 -32 36.25 39.75 -44.25 -38.25 42.25 22.75 31.75 54.25 28.25 32.25 -99.5 -39.5 54.25 64 74 27 -31.25 -95.25 37.25 19.5 3.75 7.25 -59.5 23 -12.75 28 -15.5 0 -18.75 43.25 15.75 -40 30 -6.75 114.5 180.25 172.75 21.75 28.75 195.75 173 86.75 3.75 32 -28 20.25 40 -13.25 2.75 -36.75 28.75 -8.25 14 -29.25 -6.75 -46.5 12.25 -41.5 -15.25 -0.25 -34.5 -7.5 10.75 -47.75 0.75 4.25 -9.75 -20 4.25 -8.5 12.25 2.25 -32.5 10 10.75 26.75 0.75 -6.25 23.25 14 -56 -4.75 -49 -44.25 11 -89.25 -183 -6.75 -29.25 -59.25 -59.5 -36.25 -8 5.75 -13 8.75 30.5 -48.75 41.5 21.25 -21.25 8.75 -58 42.25 -94.75 -62.75 33.25 -12 -65.75 -36.5 -15 -143.75 -60.5 -4.25 -44.25 -4.5 9.75 30.75 22.75 -8 -17.25 35 -73 -2.25 45.5 0.75 30.75 2.5 30.5 -30.5 -34.5 -38.5 -83.25 -3 -10.25 -49.25 -19.25 -65 -29 -49 -27.5 -18 6.5 -4 5.25 -2 -7.25 -38.75 1.75 -52.5 63.5 19.5 67.75 59.25 -25.25 -31.25 7.25 123.75 126.25 3.25 -46.25 -33.75 -2.25 -14.25 68.75 -42.25 -19.25 5.25 12.75 11.25 -23.75 -34.75 -12.25 -41.25 -23.75 -0.25 82.75 26.75 18 -16 -41.75 -39.25 -56.5 -86.25 4.75 17 8 -4 -20.25 -26.75 -2 -10 3.25 -15.75 -11 -1.25 29.75 22.5 29.5 21 anger
40.75 281.75 526 701.5 747 743.25 752.5 728.75 636.75 428.75 131.75 220.25 17.75 102.75 56 25 -1 -0.75 9 -29.25 -28.25 -69.25 -56.75 70.25 36 310.25 436.25 570.75 596.75 617.75 644.25 581.25 529.75 465.5 142 153 10.5 72.75 29.75 14.75 -0.25 17.25 -4.25 -11.75 -21.25 -27 -87 73 33.25 267.5 444.5 525.5 629.25 630.75 642.25 633.5 566.5 537.25 261.5 112.75 16.25 64.5 27 20.5 25.25 -4.75 28.25 -19.5 -15 -12.75 -150.5 49.75 59.25 314 430.75 411.25 491.5 475 407.5 339.25 272.25 316.25 313.25 120 40.25 29.5 -4.75 8.25 18.5 13.5 -27 -20.25 1.75 16.25 -62.25 56.5 70.5 271.5 191.5 135.25 99.5 247 286.25 119.25 122.25 229.25 359.75 147.25 34.5 -5.5 -24.5 -23.25 4 86.5 -106.25 5.25 15.75 69.25 -30.75 4.25 82.25 296 353.25 307 356.5 435.25 588 406 387 416.5 347 144 11.25 47 -22.25 -2.84217e-14 20 80.25 -105 8.5 -5 5 -42 3 93 218 353.5 480.25 446.25 442.25 595.75 425.75 520.25 416.25 302.25 142 16.5 54 24 26.75 -59.75 55.75 -99.75 1.25 1.75 -34.75 -54.75 5.5 104.75 187.75 353.25 469 513.75 277.75 282.5 466.5 481.75 420.25 270.75 148 3.25 65.75 32.75 11.5 21.25 -12.25 3 84.5 2.25 -24.75 -120.75 5.5 135.25 138.25 320.25 401.5 303.75 267 274.25 283.25 371.5 397 197.25 155.5 -9.75 11.75 14.75 -3.5 -12.75 -3.5 -6.25 13.25 29 -7 -108.75 9 165.25 116.5 231.25 363.5 425.25 353.5 305.5 395.25 386 372.75 102.75 166 -19.25 -36 63.75 20.5 -4.25 -27 11 20.75 -5.5 -1.25 -0.25 16 182.75 171.5 199 300.5 437 456.25 452.25 415 390.75 382.75 176 176.5 -4.75 -12 19 38 1.5 21.75 -16.75 -6.5 -14.25 19.75 -26 11 188.25 196.25 269.5 242.75 331.75 348.75 338.75 367.25 310 393 358 388 -12.25 12.25 5.5 -8.25 46.25 -17.75 15.25 -17.25 8.5 20 -37 -14 2.75 24.75 -28.5 -20 -20.5 -20.75 -21.5 -25.75 -22.25 28.25 15.75 -8.25 -1.25 -10.25 -1.5 -4.5 -1.5 -0.75 -2 3.25 -1.25 18.25 -15.75 4.75 -3.5 -10.25 -23.25 -59.25 -50.25 -34.75 -38.75 -22.75 -25.75 -4 0 -14 3 -2.75 -12.75 -1.25 7.75 -0.25 1.75 -2.75 2.25 -0.5 -2 4 4.75 4.5 17 23.5 27.75 46.75 25.75 5.5 7.5 36.75 44 -6.75 2.75 -5.5 12.5 -5.5 3.75 -4.75 10.75 -4.5 11 -1.25 -11 -8.75 10.25 -15 -86.25 -127.75 -98.5 -115.5 -76.5 -203.25 -57.75 -14.25 3.75 -3.5 6.25 -24.5 -22.75 14.25 6.5 22 -26 -19.75 52.75 -3.25 27.25 -3 -3.5 16 -72.5 -69.75 18.5 4.5 8.75 31.25 53.25 102.25 15.25 6.75 -5.5 13 -26.5 11.75 -1 -16 5.25 5.25 2.75 -6.75 -8.25 -8.25 6.25 -29.5 37.25 64 82.5 20.75 41 104.5 70.5 9.5 -14.5 0 0.25 -2.5 22.75 -2.84217e-14 5 -25.25 -1 14 -15.5 -15 -3.5 7.22243e-15 5 -1.5 2 0.75 -25.25 41.25 -10.25 -11.75 -31.25 -9.25 -7.25 -2 0.5 0.5 6.5 -1.75 -4.25 -30.25 28.25 -63.25 12.25 0.75 -7.25 1.5 3.75 -9.25 4.25 -5 49.75 63.25 16.5 98 12.25 7.75 -5.25 9 -3.75 -5.25 4.75 -12.5 6.25 -56.75 56 -32 -11.25 -1.25 -15.75 -3.5 4.25 -28.75 -12.25 -8 -118.25 -150.5 -137.75 -158.75 -54 -15.5 -31.25 1 -16.75 -20.25 0.25 -13 -2.75 12 -11.25 9.25 44.5 9.5 26.75 2.5 3.75 6 -27.25 -37 -20.25 -34 -40 -37.75 -5 -6.75 3.25 5 0.25 3.5 0.25 1 2.25 -4.5 1.5 0.75 -3.5 -4.75 10.25 -2 0.75 12 21 -26 17 -49.25 -20.75 34.5 -17.75 -5.25 20.5 -3.5 -1.75 9.5 1.38168e-14 2.5 26.5 -26.75 28.25 -20 -0.75 13.75 -15.5 -2 0.25 6.25 17.5 0.75 -57.25 -14.75 -16.25 -36.25 -15 -1 120 216.5 -2.25 7.25 -6.5 -5.25 3.25 10.75 -7.75 -2.75 37.5 2 56 -26.5 anger
40.75 165.75 407.5 636.75 725.25 745.5 752 715.75 581 434.25 161.25 131.25 -5.75 84.75 65.5 34.25 11.75 4.5 2.5 -25.75 -35.5 -41.25 -50.75 19.75 27.75 144.5 461.75 606.75 675.75 700.5 700 691.75 643.25 540 231.75 122 -5.75 70.5 50.75 32.25 5.75 4 -5.5 -3.75 -12.75 -55.5 -72.75 4.5 14.25 173 475.75 605.5 699.75 723 728.25 708.5 673.25 540.25 330.5 66.75 -11.25 72.5 48.75 17.5 4.75 -4.5 0.75 -10.5 -18.25 -48.75 -78 7.75 17 271.25 443.75 470.75 471.25 567 542.25 426 433.75 467.5 401.5 56.75 -9.5 66.25 25.25 -8.25 22.25 56 -39.75 -29.5 35.75 -4.5 -57.5 9.25 48.25 327.5 287.25 192.25 198 443.75 435.75 244 210.75 319.5 475.75 179 -10.75 35 -54.25 -16.25 27 113.75 -86.75 0.5 -2.25 78 -10.25 2.5 163.5 425 480.5 475 479.75 550.25 575.5 584.25 583.25 604 554.5 333.5 21.5 61.5 -17.5 13 -4.25 89.25 -8 -4.75 3.75 7.5 -34.5 1.5 270.5 402 574.5 633.25 563.5 584.75 577.25 585.25 671 628 515.25 447.75 58 81 16.5 8.75 -68 93.25 -37.25 56.25 -2 -20 -32.75 28.25 311 394.5 539.75 626.75 523.5 376.5 382.75 533.25 649.25 598.5 464 421.75 151 3.5 33.75 13.25 -111 41.5 -34.75 97.75 -3.75 -29 -43 -15.25 69 187.75 479 588 553.75 591 617.75 611.5 620.75 593.25 378.75 39.5 44.5 114.75 48.5 10 -15.25 20 0.25 7 -1.25 -21.25 -140.75 4.5 6.25 51 422.5 548.5 499.5 313 353.25 506.5 567.25 546.25 251.25 20 -4.25 49 30 18 -13 -21 20.75 45 27.75 -15.75 -214.25 7 12.5 14.75 389 493.25 488.25 445.25 451.5 508 519.25 486.25 147.25 6.25 -3 9.25 27.5 19.25 0.75 -13.25 18.5 0.5 -11.75 -4.25 -146.75 6.25 14.5 8.5 419.5 477.75 486 533.25 512.75 531.5 500.75 491.5 148.5 11.25 -6 2.5 31.5 8.25 9 -2.25 -3.25 -3 -6.25 14.5 -145 10.25 -2.75 16.25 25.5 5.75 -12.75 -20 -16.5 -5.75 28 37.25 24.75 1.25 -0.25 16.25 1.5 -10.75 -3.25 -5.68373e-14 3 10.75 -0.5 3.75 -12.25 -10.25 -14.25 -24 14.25 -6.75 -1.75 -1.5 0.5 16.75 21.25 6 11.75 -14.5 -2.75 -14 -8.75 9.75 -1.75 1 2 4.25 -3.75 -10.5 -0.75 -5 2.25 49.5 -10.25 -3 -13.25 -3.5 6.25 -26.5 -0.25 17.25 31.5 -4.25 -1.25 -2 1.75 -10 8.75 -1 -3.25 2.5 1.25 15.25 -6 -4.25 -1 12.25 -60.75 -160.75 -194.75 -80 -117.25 -207 -111.75 -43 3 4.25 1.5 -11.75 -24.25 -15.75 12.25 66 -21.25 -12.5 32.25 1 15 10.75 24.75 22 -89.75 -38.25 12 47.75 55.75 48 101.75 75 36.25 29.5 0.75 1.5 -67.25 23.25 -40 18.75 -1.75 0.5 -1.25 -22.5 -1.75 -21 36 7 57.5 67 62.25 9.25 1 61.75 48.75 23.5 -3 43 13 2.5 16.5 -9 -22.75 -3.75 11.5 15.75 -8.75 -9 -7 6 19 -15.5 2.5 11.25 -3 3.25 21.25 -41.25 -3 -0.5 -11.25 34.25 17.5 0.5 4.5 -1.25 -16.5 -9.25 -7.25 16.75 1 0.5 2.75 -7.25 -14 5 -18.25 -11.75 -6 -68.5 -33.25 31.25 -4.75 -8 -16 -79.75 18 -28 3.75 2.75 -5.5 -16.5 45.25 -0.25 -8.75 3.5 -15 -25.75 -59.5 -54.25 -19 -13 -8.25 37 -3.75 -3.5 -25.25 -11.75 -23.25 -1.5 -54 18.75 5.5 -3 9.75 0 1.75 -19 8.75 0.75 -28.75 -4.5 2.25 -29 -8 -3 -1.5 87 137.25 73.5 -16.25 -13.25 -41.75 -7.5 -2.25 -30 -5.5 11.5 15 19 -0.25 -36 -3.75 2.75 11.75 2.5 4.5 -0.75 0 -18.75 -19.25 -0.25 83.5 35 7.75 -3.25 -0.75 1.25 3 -0.25 -2.5 0.25 -19.75 42.25 -1.5 -4.5 -7.25 -4.75 1.25 1.25 -2 2 11 10.25 5 -30.25 -63.25 -52.5 -3.25 5.5 -2 0.25 1.5 -3 5 -1.25 -3 -15.75 -14.25 22 -1.25 7.5 3.5 0.25 anger
205.75 216.5 320 855.5 1015 1020 1020 1020 944 495.25 296 222.5 -3.25 9.5 67.5 86 4.5 0 0 0 -67.5 -86.75 -55.5 5 144 118.25 660.5 1019.5 1020 1020 1020 1020 1020 757.5 179.5 176.25 -17 4.75 243.5 0.5 0 0 0 0 0 -203 -29.5 23.25 167.75 189 929 1020 1020 1020 1020 1020 1020 956.5 237.75 150 -13.25 75 91 0 0 0 0 0 0 -63.5 -117.75 25.5 106.75 256.5 987 967.5 917.25 993.75 948.5 841.25 908 998 641.25 158.5 -16.75 172.5 26 -16 3.25 24.75 -41.5 6.25 38.5 13.5 -285.75 33 166.75 583 806.5 478.25 462.25 872.25 792.75 582.25 599.25 867.75 976 209.5 -48.75 342 -60.5 -89.25 68.25 107.75 -149.75 -14.25 24.25 96.25 -44 -47 130.75 711.75 869.5 918.5 987.5 1015.5 1018.5 1008.75 968 1005 1018.25 318.5 -29.75 299.25 -64 49.5 3.5 4.5 -1.5 -5.25 -14.5 14.5 -1.75 -136.5 152.25 674.75 1020 1020 982.25 990 1010.5 994.75 1020 1020 1007 457.5 19.25 318.25 0 0 -37.75 30 -9.5 24.25 0 0 -13 -70.5 127.25 557.5 1011 1020 987 675.5 716 971.25 1020 1020 962.5 693.5 7.25 186 8.5 0 -33 29 -19 41.75 0 0 -56.5 -45.5 89.75 469.5 917.25 1019.5 1020 990.25 990.25 1019.25 1020 1020 899 632.25 -28.75 158.5 78.25 0.5 0 -20.75 9.75 0.75 0 0 -100.5 -124.75 117 141 690.5 984.5 973.5 923.5 938.25 957 1007.75 970.5 631.5 176.25 -13 54.5 137 32 -37.5 10 15.75 12 -0.75 -22 -268.5 6.75 148.5 109 325.75 764.75 918.25 854.25 950.5 897 964.25 778.25 350.75 220.5 4 -26.5 228.25 49.25 -37.75 28.25 2 3.5 -34.25 -11.75 -211.75 39.5 157.25 129.75 203.75 524.75 691 847 873.75 880.75 773.25 633.25 313 203.25 2.25 -16.25 127.25 10.25 63 -10.5 9.75 32.75 -81.75 26.25 -180.5 28.75 -36.75 -11 44 126.5 5 0 0 0 54.5 44.25 -38.5 -5.5 20.25 7.53644e-15 33.5 -49 -4.5 0 0 0 46 -38.75 4 11 2.5 -12.25 129.5 0.5 0 0 0 0 0 78.5 -21 -21.25 0.5 -3.75 -28.5 -0.5 0 0 0 0 0 22 6 -0.25 -7.75 31 -6 0 0 0 0 0 0 40.5 54.75 7 5.25 7 6 0 0 0 0 0 0 40.5 -52.75 -3.5 3.75 69.5 13 -52 -101.75 -26.25 -71.5 -178.25 -108 -22 122.25 -1.5 -2.75 78.5 -20 -15.5 4.25 24.75 -41.5 6.75 35.5 13.5 42.25 1 2.75 58 -53.5 -145.75 45.25 49.25 92.25 27.25 -166.75 -115.75 24 26.5 -2.75 -18 -17.5 48.75 21.25 -14.25 31.75 -9.25 -56.75 77.75 24 -28 -6.75 12.75 140.5 95 32.5 4.5 1.5 11.25 52 15 1.75 21 14.75 -7.75 54 -44 -3.5 -4.5 1.5 5.25 14.5 -14.5 1.75 -12 -8.75 -27.75 0 0 -4.75 18.5 7 -10.25 0 0 -9.5 74.5 -6.75 11.75 0 0 -4.75 -18.5 7 9.25 0 0 -9.5 39.5 -2.75 3.5 -7 0 27 -21 40.5 31.25 0 0 -8 -4.5 -8.75 -88 6.5 0 27 -90.5 127.5 -24.25 0 0 -7 -77.5 3.25 -35.5 -39.75 -0.5 0 -5.75 -22.25 -0.75 0 0 -42 -179.25 2.75 66.5 25.25 0.5 0 -5.75 2.25 0.75 0 0 -35.5 -59.25 15.5 -61.5 -90 -25 38 88 19.25 61 -5.75 -36 -104 11.75 3.5 -69 31.5 21.5 42 -18.5 -2.25 -10 -7.25 -9.5 -51 16.25 14 16.5 -82.75 -54.75 -28.75 66.25 68 52 -2.75 -23.75 -20.25 5.5 -0.5 3 -57.25 -3.25 -1.75 57.25 -0.5 -49.5 6.75 -18.75 22.25 -1.5 -0.25 -4.75 0.25 -42.75 -75.5 -84 -75.25 -74.25 -54.25 -39.75 -16 -6.25 -2.25 0.25 0.75 -45.25 18.5 -20.5 3.75 3.75 -20.25 71.25 8.5 2.25 anger
48.5 0.5 265 531.5 702.75 765.75 780.75 806.5 707.75 458.5 134 0 -48 0.5 135 45.5 27.75 15.75 -7.75 3.5 -65.25 -58.5 -101.5 0 48.75 18 389 566.75 671 722 752 743 689.5 648.75 367 13 -48.25 18 106.5 19.25 21 11 4 -6 -18 -16.25 -142 -8 40.5 47 427.75 654.75 711.5 755.5 790 795.25 772.75 669.75 452.5 44 -40.5 47 98.25 19.75 10 7.5 10.5 2.75 -12.75 -48.25 -82.5 -40.5 55 94.25 309.75 297 381.25 551.75 617.25 540.75 500.75 535 504 44.25 -9.5 93.75 5.75 -7 44.75 18.25 -17.75 -17.25 4.75 20 -45 -43.75 141 233.25 250 105.75 131.25 379.5 409.75 152 133.75 284.5 516 137.75 3.5 131.25 -89.5 -21.75 7.75 154 -166.75 7.5 39.75 50 27 3.25 253 347.25 546.25 450.75 508 663.75 723 500.75 391 527.25 622.5 324 88 95.75 -18.25 -7.25 21 127.75 -76 -57.25 -0.5 60.75 -15 -9 262 395 539.75 671.5 578 722.5 748.5 675.75 724.5 668 575.75 547.5 117.5 -42 57.25 12.5 -60.5 66 -53 37.75 -2.5 -22 -29.25 3.5 194.5 314.25 419.5 604 458.5 299.5 340.25 609.25 702 596.5 497 502.5 23 -25.75 58.5 23 -137.5 27.5 -15.75 73.75 1.5 -40 -25.5 18.5 184.75 171.5 367.5 492 491.75 370.25 459 617.75 655.25 567.75 388 146.5 0.75 0.5 38 21 -12.75 5.25 23 32.25 -7.75 -31.75 -136 17 185.75 189.25 316.75 403 474.25 460.75 481 563.5 576.25 531 316.75 209.25 1.25 2.25 37.25 23.5 0.75 -35.75 37.5 8 5.25 -14.5 -101.75 -0.25 192 196.25 234 333.25 455.5 531.75 540.25 553.5 503 464.75 233.75 214 0 1.75 23 45.75 14.5 28.25 -21.75 11.5 -29 -4.25 -15.25 -1 195.5 202.5 276.25 268.75 397.75 450.75 483 507.75 396 438.5 224 219.25 1 1 -9.75 6.75 28.25 7.25 20 -28.25 -8 22.5 -4.5 -1.25 -0.5 0.5 54.5 2.5 -15.75 -24.75 -10.75 -16.5 25.75 81.5 45.5 0 -5.0243e-15 0.5 -10.5 -12.5 -2.75 -2.75 6.75 -0.5 23.75 5.5 -27 0 -4.25 8.5 8.5 25.75 19.5 9.5 9 9 6 18.25 55.5 4 3.75 8.5 -4 7.25 -9.5 -0.5 3 -2 -1.5 -0.75 9.5 -7 -2 5 20.75 29.75 -17.5 -14 -10.5 -12.75 13.25 -3.75 1.5 6.5 2 5 8.25 -10.25 -8 3 -3 3.75 8.75 -12.75 10.5 -4 28 17.75 -85.25 -122.5 -258.75 -105.25 -86.75 -241.75 -280.25 -174 20.5 2.75 17.5 17.25 -2.25 -37.5 2.75 23.25 -16.75 -46.75 16.75 70 4.5 -2.25 34.5 65.75 39 22.25 52.75 63.5 62.25 34 -61.25 -67 3 50.25 24 -8.25 -38.5 -8.25 -12.75 28 -23.25 20.5 -6.25 57.5 12 21.75 20 28.25 44.75 107.75 110.5 40.75 38.5 131.75 124.5 104.75 16.5 -22.5 17 -47.25 37.25 -7.25 -11.5 -19.25 37.5 -9.25 13 -27.75 -17 -60.5 2.5 -17.5 -36.25 -3.5 -18.5 -17.5 -7.5 -27.25 24 -20 -26.75 17 3 -17.5 8.25 3.5 -4 -8 4 13.75 6 -7 2.25 39 -23.5 -100.25 -21.5 -23 28 -30 26.25 46.25 -16 -10.5 -11 -25.5 -32 39.75 -5.5 14 18 -18 35.25 -27.25 -5.5 2 3.5 -45.5 3.75 15.5 -6.5 -28 -69.25 -95.25 -134.5 -77.75 -25.75 -10.25 -7.5 26.5 0.75 -2.5 -11 -12 -6.75 5.75 0.5 7.75 7.25 9.25 -16.5 -1 -1.75 0.25 -25.25 -19 42.25 92.25 101 90 -24.25 -13 -26.75 1.75 -0.25 -0.75 4.25 17.5 9.75 -0.25 7.5 -8.5 -11.25 -0.5 28.75 -1.75 0 0.25 -9 -16.75 52 155.75 155.75 16.5 -25 -19.25 -2.25 1.5 0 -1.25 -6 6.75 21 3.25 -16.25 -20.5 -2 9.75 1.75 0.5 1 2.5 38.75 -3.75 -81.25 -117.75 -98.5 -73.25 -22.5 7 1.5 0.25 1.5 -3 -23.25 -0.75 -11.75 -7.25 17.5 5.75 1.5 4 -1.41308e-14 -0.25 anger
250.75 222.25 251.5 490.75 518.5 823.75 927.25 780.25 422.25 429.75 351.75 378.5 2.25 -5.25 55.5 140.75 -68.5 122.25 -29.25 -229.75 6.25 -4.25 -16.25 23.5 239.75 200.5 290.25 627 655 1018 958.75 946.5 347.25 350.5 275.5 303.25 -13.25 -16 52.25 -117.5 167 2 35.75 -73.5 -11.75 19 -22.5 23.75 233.75 277.75 514 626.5 1013.5 1020 944 1020 571.25 463.75 234.75 313.25 -12.75 34.75 133.5 118.5 6.5 0 74.5 0 -197.75 -97.75 -48.75 61.25 229.25 527.5 825.75 788.25 781.5 859.5 890.75 804 637.75 559.25 448.25 236.25 8.25 102.5 6.25 -24.75 -2 79 -3.75 -17 -130.25 107.75 -171.75 51.25 252 575.75 517.75 429 417.75 744.25 813.25 409.25 376.5 453.25 498.5 220.75 -37.5 39.75 -26.75 -24 13.25 124.25 -94.75 -35.75 11.5 26.25 -87 10.25 512 838.75 970.75 900 923 1008.25 1016.5 918 859.75 924.75 948.25 477 -159.5 140.25 -14.25 -7.5 23.5 11.75 -3.5 -35 4.25 33.25 -38.75 -63.5 712.25 836.25 1020 1020 944.5 1010.5 1020 1002 1020 1020 1020 765.75 -113.75 167.75 0 0 -42.5 9.5 0 3 0 0 0 14.75 730.75 895.5 1020 1017.75 837.75 774.25 746 857.5 1020 1020 1000 871.25 -85.75 106.5 0 -2.25 -112.75 71.75 -53.5 121.5 0 0 -20 84.75 638.5 786.5 977.5 1006.5 963.25 948.25 952.25 1001.5 1001.75 1007.25 937.25 626.25 -6.5 69.5 8 6.5 -31.75 -5.75 -12.25 16 -8.75 5.25 -52.75 -39.25 666.75 643 760 690.75 610.5 665.75 695.5 660.5 692.75 809.5 754.75 633 -0.75 1.5 43 -59.75 -14.5 38.75 -2.5 -18 88.25 -30.5 -12.25 4.5 655 597 571 722.25 772.25 691.5 692 776 744 631.25 642 619 -7 -31 25 22.75 -21.25 -15 37 -10.5 -20.5 -4.25 0.5 4.5 725.25 631 517.75 663.5 728.25 775.5 740 845 733 566.5 638.5 606 -35.75 -19 5.75 56 3.75 -5 -8 45.5 -75 -29 13.5 5.5 -1.25 2.25 34.5 70.75 -65 72.25 14.25 23.25 -40.25 -7.25 -4.75 -23.5 5.25 0.75 38.5 35.75 78 1.75 24.75 13.25 12.75 -3.25 -10.75 -6.5 2.25 -13.5 10.75 -28 154 2 1.75 48.5 6.25 -32.5 -36 -13.75 -8.75 -5 74.75 -109.5 30 -2 11.75 48.5 -34.75 -2 12 0.75 -3.25 80.75 62 155 6.5 0 -7.5 0 55.25 107.75 19.75 -5.75 -0.75 38.75 -120.5 72 -6.5 0 9 0 -50.75 -21.75 -39.75 3.25 -10.75 -9 -86.25 -156.75 -226 -115.5 -62.25 -153 -161.25 -106.25 12.25 -25.75 4.25 -41 21.25 -43.75 8.5 39 -49.75 -30 83.75 18.25 48.25 -7.75 21 76.75 -8.25 24 41.75 109.75 107.25 22.75 -18.5 -110.75 -6.5 17.25 -12.5 8.75 16.25 3.01458e-14 -29.75 7.75 2.25 -6.25 -47.5 -13.75 63 -10.25 39.5 25.75 49.25 120 97 11.75 3.5 101 150.75 93.25 61.25 118 28 15.25 14.25 7.5 -23.5 -11.75 3.5 34 -3.75 -31.25 28.25 -10.5 10.75 -6.75 0 0 -16.5 9.5 0 -5 0 0 0 78.75 33.75 -9.25 0 0 16.5 -9.5 0 -6 0 0 0 46.75 -74.75 -4.5 0 -2.25 -88.75 -196.75 -204.5 -88.5 0 0 -13 -39.25 58.75 -5.5 0 -2.25 -93.25 27.75 -11 77.5 0 0 -13 -5.75 15.5 -47 -37.5 -13.5 20.25 71.25 66.25 16 -18.25 -12.75 -22.75 11.25 0.5 -14 3 6.5 39.25 6.25 11.75 -18.5 -8.75 5.25 3.25 14.75 -0.75 -24 -55 -137.25 -84.5 13.25 24 -89.5 -113.75 -48 -43.75 -5.5 1.75 -13.5 31 -60.75 50.5 -59.75 57 -49 93.75 -24 1.25 -1 0 1.5 -30.5 25.75 -2.75 -70.5 -16.5 27.5 66.5 -32.75 -17 -10 -3 -5.5 -26.5 17.25 9.75 -32 42.5 -6 -82 26.75 8.5 2.5 37.75 18 -12.75 4.5 9.25 -89.5 -50.5 15.5 -21 -36.5 13 -5.5 10.75 -5 -18.75 13 -16.25 -11 19.5 -1 12 -7 -10 0 anger
33 228.75 645 891.25 1017.5 984.5 818 682.5 660.75 270.25 58.25 268.75 -21 169.75 50 56.75 2.5 -28.5 -63.5 -24 -12.25 -109.25 -8.75 195.25 23 482 819.25 946.75 1019 1020 1020 1020 991.5 850 242 294.75 9 175 21.25 38.75 1 0 0 0 -24.5 -45.5 -167.5 184.25 68 542 799.25 928 990.75 1015.25 1018.25 1018.25 972.25 897.25 438.5 239.5 57.5 79.5 37.75 38.5 7.25 -3.25 0.25 -1.75 -20.75 -23.25 -246 119.5 152.5 562.75 600.25 535.5 500 742 839.75 658.5 653.75 770 482.25 250.25 134 39.25 -20.75 -8 26 62.5 -46.75 -15.5 14.25 41.5 -223.75 126.25 243.5 592 433 282.25 327.25 625 731.5 240 299.75 557.5 570.5 376.75 123 -16.5 -44.5 -68.75 -38.25 203.5 -234 -17.5 102.25 59.5 -195.5 182.75 350.25 763.75 816 752.25 795.25 791.5 920 730.25 675.25 787.25 710.5 517.5 146.75 49.75 -25.5 -0.25 -0.75 66 -100 -29.75 21.75 43.25 -158.5 -23 440 715.5 934 1017.25 880 836.75 987.5 936.75 1019.75 989 736 570.5 -34 78 37 2.75 -122 106.75 -32 74.75 -0.25 -18 -154 -17.5 537.5 575.5 830 954 789 454 514 849 996.75 928.5 758.25 624.5 -96.5 85 49 12.5 -153 41 -24.5 141.5 -0.75 -31 -1.25 -124 409.25 500 659.25 765.5 762 702.5 736.5 871 786.25 786.5 651.25 503.75 -12.75 73.5 29.25 27.5 -18 -37 54.5 21.5 -5.75 -4.5 4.25 -26.75 381 407 550.75 618.5 500.75 567.75 556.25 631.5 722.5 677.25 491.75 467.5 9 26.5 25.25 -39.5 -2.25 -6.75 -6.25 30.5 21 -16.75 -12.75 -3.5 358.75 336.25 388.5 523.75 557.5 475 559 613.25 586 536.25 453.5 443 8.75 -32.25 32.5 34.75 -17.5 -15 33 12.25 -35 -33.25 -0.5 -5.5 337.25 332.25 302.5 468 679.25 743.25 734 711.5 530.5 552 433 413.5 6.25 -17.75 1 88.5 24.25 -29.75 22 -29 -24 -76 -4.5 -4.5 -19 119.75 159.5 31.75 2.5 35.5 199 300.5 288.25 124.75 -8.75 -11.25 14 82.75 -36.5 -14.75 -2.5 28.5 60.5 -1 -8.75 -73.75 -1.75 2.25 10.5 25.5 3.75 8.75 0.5 0 0 0 -1.5 63.5 93 5.25 11.5 -27.5 3.75 -4.25 -0.5 0 0 0 -0.5 40 -83.5 -9.25 14 5.5 -12.25 -17.5 -28.75 -4.75 -1.75 -1.75 -14.25 -16.25 4.5 -18.5 15.5 -23 3.25 -8 6.75 -3.25 0.25 -1.75 2.75 -3.75 18 -27.5 16.5 -4.25 -143.75 -184.5 -213 -140.5 -101.75 -260.5 -264.75 -79.5 26.25 17.75 14 -9.75 -12.75 -23 6 49 -51.25 -6.5 19.75 69 9.25 22.75 52 33.5 -78 -25.25 105.75 45.5 43 35 -82.25 7 15 71.75 -17.5 8 -51.5 5.75 -53.75 4 -6.5 7.5 0.25 34 -2 1.75 -21.75 16.75 111.5 199.25 144.25 2 14.5 178.25 196.25 169.25 49.5 57.5 25.75 8.75 43 -0.25 -47.75 -7.5 14.5 28.25 -7.25 -34.75 10.5 31 27 -33 -20.5 -0.25 -25.5 24.25 20 -5.25 -0.25 -17 -20 43 -53 2.5 8.5 0.25 -13.5 2.25 20.5 -0.25 -0.25 -7 -2 -53 21 -23 -42.5 -47 8 -28 -125.5 -8 -20.25 -31 3.25 0 17 -3.5 1.5 5.5 29 -77 20 4.5 -1.75 1.5 39.75 -10.5 -24.75 -23 -35.75 -55 -48.5 46 48.5 -19 -41.75 -31 -106.25 -25.75 18.25 -2.5 -5.75 -1 18.5 66.5 -30.5 -20.5 3.25 4 -42.25 18.75 -5 -25.5 -33.25 26.5 95.75 49.75 38.25 143 -29.5 -35.75 -15.25 -0.5 -1 -29 -0.75 63.5 -46.25 8.25 30.75 -28 -20 -11.75 5.25 2.5 -3.75 -0.75 -30 -26.25 -3.5 -1 -40.5 -29.75 -14 -8.25 -8 -11 0.25 -0.25 9 -3.25 11.5 -19 10.5 3.25 7 -1.75 2 -0.5 -5.25 -2.25 -8.5 -57 3.25 -12.75 -43.5 11 -30 11 -7.5 -6 -2.25 3.75 -13 9.5 9.25 -24.75 -0.5 1.5 8.5 -14 -2.85757e-14 -1.44449e-14 anger
101.75 83.5 141.5 426.25 571 610.75 627.5 633.5 570 408.75 165.75 175.75 12.75 -21 60.5 70.75 5 9.75 10 -1.5 -22 -58.25 -39.75 34.75 134.25 55.75 249.75 441.5 532.25 565.75 585.75 583.75 533.25 479 231.5 115 -8.75 -18.75 79.75 30.5 13.75 6.75 0.75 -8.25 -16.25 -11 -97.5 12.5 154.25 107.25 317 412.25 492.5 531.5 550.25 561 547.25 484.25 219.25 73.25 3.75 21.75 32 26.25 17 -4.2628e-14 9.75 -5 -3.75 -29.25 -122.25 26.75 167.5 101 302.25 265.25 267.75 403.5 372 256.5 322.5 391.75 280.75 27.25 -24 30 19.25 -14.75 17.25 40 -65 -6 22.5 12.75 -93.25 0.25 128.25 97.25 209.75 212.25 182 332.25 366.25 194 241.75 353.25 398.75 85.5 -37.75 53.75 16.75 1.25 -15.5 134.25 -92.25 1.5 18.25 24.75 -11.75 -51 93.25 134 283.25 325.25 354.25 395.25 437.5 388.75 408.5 458.25 391.5 204.5 -19.75 68.5 -3.25 19.25 -3.75 117.25 -23 -14.75 18.5 3.25 -28 -46.5 94 149 324.5 436.25 381.75 434.5 412 440.5 480.5 425.25 351.25 270.75 -0.5 53.5 28 22.75 -67.25 121 -29.5 30 -4.5 -18.75 -21.75 -27.75 140.75 155 281.25 387.5 307.25 279.25 273.75 423.5 454 380.5 333.75 373 15.75 22.5 29.75 15 -51.25 41.75 15.25 22.5 -12.5 -21.5 -1.75 26.5 81.25 127.75 253.25 289 315.25 189.25 297.75 440.25 405.75 365.25 302.75 130.25 13.75 19.25 18.25 2 -16.25 -0.25 45.25 -0.75 0.25 -16.75 -14.75 7.25 59.5 81.25 253 351 274.5 211.25 242.5 371 417.25 359.25 201.5 156.75 9.5 -27.25 52.5 -11.5 -26.5 -6.25 19.5 26.5 -3.25 -22.25 -99 55.25 48.75 47 165 288.25 314.5 329.5 345.5 356 364.75 333 125.5 66.25 -0.25 -24.5 77 1.75 17.5 -10.5 16.5 1 -6.75 -19.5 -76.5 -6.25 46.75 21.25 142 279.75 306.75 418.25 441.5 357.75 345 332.25 76.75 74 -2.75 -10.75 59.5 12.25 28.25 14.25 -13.5 -21.25 1 9.75 -17.25 6 21.25 -11 14.5 60.75 -5 -21.75 -15.5 2 9 42.75 -4.75 -26.75 3.25 -2.5 37.5 -36.75 -3 -3.75 3 6 2 19.75 -7.25 -5.75 -1.75 0.75 21.75 -11 -2.75 1.75 3.25 2.75 -3.75 1.5 23 -1.5 -0.75 11.25 -19.25 3 0.75 1.75 3.25 1.75 -3.25 0.5 -4 -8 11.25 18.75 6.5 -8.25 -25 -22.5 -23.25 -26.5 6.75 4.25 -11.75 -21.75 -9.25 5.25 2.5 -6.25 -1.5 -1 1.25 1.5 11.75 -4.25 4.75 -11.25 -4 -14.5 -51.25 -126.75 -112.75 -53.5 -65.5 -94 -86 -81.75 44.75 -3.25 -6.5 5.5 -34.25 -9.75 7.75 25 -23.5 4.5 1 30.25 13.75 -5.25 -12.25 8.75 19.75 -140.75 -72 15.75 34.75 -66 -95.25 -38.25 1.25 40 -1.25 3.25 -20.25 -0.75 27.5 21.75 5.25 -8.5 -21.75 46.25 8.75 -19.5 2.25 11 25.25 59.75 82.25 10.25 -3 101.25 99 18.25 -2 6 11.25 -2.5 10.75 8.75 -5.75 7.25 1.5 18.75 -12 -13.75 -4.5 -6 15.5 -0.5 -2 6.25 -33.25 25 -10 -29 -13.5 -15.75 -6.75 41.25 11 -13 2.5 -5.25 -10.25 -10.5 -21.5 12.5 8.5 -4.75 7.25 33.75 7.25 11 -15.75 -21.5 -10.75 -88.75 -96.75 30 -5 -6 -0.25 -14.5 4.25 -12.5 -6.25 2 4.75 -4.25 18.75 -21 2.5 2 0.25 -7 -22.25 -30.25 6.25 -19.5 -5.25 52.25 40.75 -12.25 -11.75 -2.25 -12.75 -27.75 -11.75 9.25 3.25 -11.5 15.25 -10.25 -26.75 1.75 0.75 0.75 -12.25 5.25 -1 9.75 -16.5 -0.5 1.5 -17.75 -28.5 -26 5.25 -7.25 -34.5 -34.75 1 -25.75 12 -12 -6.5 -5.25 -5.5 0.5 12.75 0.25 -22 -43.25 -0.25 -16.5 -14 -4.25 -17.5 7 -11.5 -19 5.75 3 -4.5 -6.25 -2.25 12 5 3.25 -11.5 20 -11.5 1 0.25 3.5 11.5 -1.75 -2.25 -3.25 3.5 -4.25 -20.25 -46.75 -35 -14.25 -3.5 4.75 -21.75 10 -0.75 0.75 -3 12.25 -23.75 6.25 4 13.75 -4.5 6.25 10.25 6 anger
47.25 148.5 386.25 631.5 731.75 754.75 760 705.25 555.5 389.75 125 150 -6.75 81.5 64.75 39 12.75 5.25 1.5 -32.75 -42.5 -61.25 -29 28 32.5 139.75 453.75 610.25 681.5 705 702.25 687 632.75 505.75 192.75 128.5 -10.5 74.25 55.75 32.25 7.5 3 -6.25 -6.5 -14.25 -65.25 -56.75 11.5 14.75 150.25 469 605.25 699.75 724.25 728.5 709.25 666 512.75 270.5 69.25 -14.25 73.75 51.5 20.25 4.75 -3.25 2.5 -10.25 -22 -53.75 -105 21.25 17 251.5 440 472 476.5 579.25 537.25 422.75 447 466 341 62.25 -12.5 79 25.5 -7.5 23 53.75 -36.75 -28.25 34.5 -2 -116 31.25 46.5 313 293.5 191.5 210.75 466 424.75 243.5 211.5 358 437.75 164 -15 49.5 -55 -17.5 31.75 118.5 -73.25 7 2.5 73.5 -65.25 12 148 409 489.25 484.75 486.25 562 576.25 594 593.75 608 522.5 289.5 39.5 71.5 -18.75 11.75 -7.75 87.5 -1.75 -3 2.25 5.5 -45 -24.5 248.75 387 572 637.5 557.5 596.5 567 597.5 668 614.5 488.75 408.5 105.75 83.5 19.5 9 -71 90 -33.5 57 -3 -23.5 -34.25 -27 272.5 394.5 532 622 513.5 372 380.25 559.5 648.5 580.25 433 348 185.5 -14 37.5 14.5 -111 41 -28.25 90.5 -1.5 -29.75 -59 -96 45.75 153.5 466.25 582.25 550.75 587.75 584.5 607.5 616.25 576.75 300.75 37.25 21.75 97 50.25 9.75 -8.75 2.75 2.5 4 -1.75 -24.25 -204.25 8.75 6.75 26.5 410.5 541 494.5 319.25 378 518 563.5 532.25 158 21.25 -5.25 24.5 32 20 -14.5 -10.75 19 26.5 17 -10.25 -151.5 7.25 17.25 5.25 377.25 484.5 485.25 461.25 479.5 522.75 517.25 485.5 75.5 7.25 -7.25 -1.75 38.25 20 -2.25 -5.25 18 -4.75 -16.75 -1.5 -71.5 4.25 17.75 4.5 409 482.25 495.75 534.25 508.25 517.25 493.5 503.75 73.25 30.75 -5.75 -1 51 5.25 9.75 -2.75 -7.25 -1.25 -12.5 16.25 -69.25 23.75 -7.75 15.5 38.75 14 -10.25 -18.25 -17 5.25 30 38.75 15.5 -1 -1.75 22.5 0.25 -13.5 -4.25 -0.75 3.5 13.25 -1 5.75 -9.5 7.53644e-15 -14 -22.75 14.25 -8.75 -5.5 -3 -1.25 14.5 24.75 7.25 10.25 -13 -3 -15.25 -8.75 9.25 0.5 2 1.25 3 -3.25 -7.75 -5.25 -1 1.75 48.25 -10.5 -1.75 -8.25 -1.25 4.5 -22.25 1.5 21.25 28.5 -2.25 -2.25 7.75 2 -10.75 7.75 -0.75 -5.5 6.25 0.5 16.75 -12 -0.25 -2.51215e-15 12.5 -55 -158 -191.5 -73.75 -124.25 -205.75 -100 -39.5 5.5 6.25 0.5 -9 -26.5 -16.5 18 60.75 -23.25 -4.75 25.5 1.5 3.5 9.25 22.5 22 -84.5 -30 13.75 48.5 55.25 56 107 71.5 39.25 20 4 1.5 -69 25 -36.25 17 -2.75 -0.5 -7 -17 10.25 -21 33 7 54.75 64.75 57.75 4.5 -0.25 57 44.25 17 -0.5 40.5 26.5 3.5 15.75 -7.25 -25.25 -2 12.75 14 -9.25 -9.5 -1 0.5 15.25 -9.5 2 10 -2 5 16.5 -38 -4.5 -4 -8.25 25 17.25 -5 4.5 -1.5 -13.5 -7.5 -8 20.5 1.5 0 4.75 -15.5 -14 6.5 -20 -12 -2.5 -36.5 13.25 35.5 -3 -5.25 -39.5 -91 13 -28 2.5 3.5 5.0243e-14 -19.5 37.75 -17.5 -9 2.75 -45.5 -17 -33.25 -51.5 -18.25 -14.25 -6.25 0.25 -49.5 -11 -21.75 -11.25 -20.25 -0.75 -34.25 5 2.75 -2.75 10.25 -19.75 14.5 -15.5 11.25 1.75 -14.25 -4.25 2.25 -21 -12 -5 19.5 106.25 119 61 -26.5 -15.25 -48 -6.75 -2.75 -21 2.5 11 37.5 -5.75 9 -29.5 -11 6.25 42.5 2.25 4.75 -1.25 1.75 -16.5 -9.75 37.25 106.5 53.25 -4.75 0 -5.0243e-15 1.25 3.25 -1.25 -0.25 -1 -8.25 48.75 -8 -10.25 -0.75 -1 1 0.25 -3.25 2 10.5 10.25 7.25 -37.25 -59.25 -33.75 -7 10.25 -3.75 10.25 2.25 -0.5 3.5 -1.75 -5.75 -12.25 -10.75 20.75 -9 -4.25 2.75 11.25 anger
260 231.75 663.75 807.25 947.25 1006.25 1017.25 1013.5 966.25 832.75 648 311.75 -58 111.75 44.75 38.75 27.75 6.25 1.75 -3.5 -20.75 -54.75 -16 -76.25 164 228 702.5 796.25 949.25 1007.5 1018.75 1018 985 892 731.5 284.25 -97 134 45 37.25 32.25 6 1.25 -0.5 -21.5 -16 -96.5 -58.25 128.75 264.25 690.75 796.5 907 992.5 995.75 997.75 949.25 912.75 686 185 -81.75 158.25 59.25 18.5 39.5 10.5 4.25 -3.25 -9.25 -11.25 -143 -26 134 414.25 600.75 565.75 587.25 822.25 854.25 776.25 726 805.25 737.25 219.5 -93.5 107.75 19.25 -39.75 43.25 27.75 7.25 -50.25 31.5 20.75 -52.75 -78.5 194.75 552.25 426.25 285.25 210.75 511 631.25 242.75 354.75 664 739 223.5 -76.75 46.25 -44.25 -42.25 -15.25 172 -152.75 -5.25 81.25 47 15 -116.5 400.75 735.5 735.25 637 677.25 841 931 665.25 525.25 588.5 846.75 390.25 -18.25 81.5 -66.25 -1 22.75 93.5 -73.5 -71.75 -22.25 70 11.25 -100.25 522.75 682.25 896.75 972.5 884 864 918 932.5 992.25 987.25 876.25 590.5 -56.25 90.25 42.75 8 -75.5 97 -80.5 59 0.25 -6.25 -54.75 38.5 482.75 578.5 793.5 921.25 719.75 462 506.5 805 961.5 894.5 742 620.5 118.75 74 42.5 16.25 -160.25 65 -34.5 110.5 -2.5 -32 -43.5 -56 453.75 481 693.75 783.25 831 841 873.25 929.5 829.75 778.25 685.25 474.25 -79.75 86.5 31.25 25.25 0.5 -11 2.75 -1 -24.75 -3.25 -48.75 -97.25 328 400.5 661.5 722.75 717.75 741 782.75 704 769.25 741.5 475 380 -23.5 70 64 -41.25 6.25 -10 -7.75 -11 32.75 -23.5 -121 -0.5 310.75 336 487.75 663 751 796.25 789.5 808 692.5 582.75 330.5 338 0.25 41 48.25 35.5 8 12.25 -15.5 6 -48.5 -13.25 -1 5 297.25 378.75 363.5 443.75 628.25 666.5 679.5 649.5 498 507 336 331.5 -4.25 53.75 -5.5 54.75 13.25 -2 13.5 -37 -19.5 -27 29 -4.5 -36.5 -3.75 24.75 2.25 12.25 8.25 2.25 6 17.25 44.75 74 24.25 -26.5 28.25 -3.25 2.75 -0.25 -0.75 -1.25 3 -0.75 16.25 7 -25.75 -19 -12.5 6.5 -1.75 0.25 1.5 0.25 0.5 -1 5.5 -19.5 -32.75 -2 0.5 6 -5.75 2.25 -1 -0.25 1 -1.5 2.5 -38.5 33.75 1.75 31.25 4.75 3.5 -23.5 -0.5 -7.75 -9.75 -20.75 0.75 2.5 6 3.25 10.25 0.25 -8.5 -3 6.5 1.75 -7.75 9.75 -2.25 14.5 -17 -3 35.75 -40.75 -134.25 -262.25 -96.25 -71.25 -192.25 -197.5 -106.75 4.75 6 1.5 -23.75 -12.25 -66.75 25.75 15.25 -16.25 -48.75 46 29.75 25.75 -16 4.75 54.75 -131.75 -158.25 -1.75 -5.5 -29.75 -12.75 -127.25 -176 -30 9 37.25 -8.25 -55.25 15.25 1.25 -15.5 15.25 -7.75 -47.75 55 39 -2 63.75 20 140.25 176 179.25 32 25 186.75 175.75 204.5 63.75 53.25 -23.25 10 51.75 -16 -0.25 -24.5 20.5 -7.25 15.25 9 -42.75 3.75 7.75 -24.75 -40.75 13.5 -37.5 5 -6 -33.5 23.75 -2.75 -40.25 -22.5 43.75 2.25 19.25 6 -24 5 -4.5 22 -1.25 -11.25 -0.25 24.5 6.25 -20.5 -26 -26.75 -17.75 -40.5 -105.5 -10 -35 -31 -10 -69.5 28.25 -5 -2.76336e-14 2.25 -30.75 -61.5 0.5 26.5 -2 6.5 11.5 -76 -76.75 -20.5 -17.75 -42.75 -36 -0.5 10.75 -44.5 -46.75 -15.75 -54.25 12.75 7.75 3 -4.25 -3.75 8.5 15.5 -16.75 -5 10.75 4.75 -48.25 27.25 -3.5 -39.5 -34.5 16.75 131.25 169.5 145.25 37 41.25 -14 -38 -12.5 6 -3 -5 32.75 21.75 -24.5 -13.25 -44 -8.25 -10 32 -24 -0.25 10 -34.25 -54 -33.5 38.25 -17.5 -40.5 -21.5 -37.25 -2.5 4 -0.75 -9 8.25 -10.5 17.5 -5.75 -26.5 -0.5 -11.5 -9.25 9 -5 -1.75 11.75 -3 -71.25 -103.25 -90 -92 -86 -54.5 -0.5 2 -6.5 -3.25 2.75 -22 -17.25 3.75 -5.5 8 1.5 13 -25.5 25 -3.5 anger
